0.0004320850510339258,0.000741335487525998,-0.0008923612269161989,-0.0004797268995932191,-0.0018036732414392076,0.00014546767792184,0.00022329604532769082,8.540742655883948e-05,0.0017247924550985623,0.00030402520941857913,-0.00033651648042594406,0.0005827435789480667,-0.0003350325334307014,-0.00011333334979236193,-0.0014899836473609845,-0.0009523315248330805,0.0003013745637606702,-0.0010139047374592355,0.00010088971762112209,0.00017602138103885168,-0.000614272681091349,0.00021348923158734379,8.236586070674984e-05,-0.0002439498040393978,-0.00048406824517397556,0.0002503395329507066,-0.0006656166191613411,-0.0008093297812134283,-0.000497020621427674,-0.001117807243780987,0.00037204058334167067,-0.0016404429743813592,-0.00046388790951974734,-0.0007501187470432269,-0.0009655345143934624,-0.0004403791897979806,0.0011030537685669355,0.0002867184470395773,-0.00036059080159832335,0.0007195311851280473,-0.0012191685659002638,-0.00035484981773005464,0.002713017954292539,-0.0012595433584692839,-0.0006352815600937298,0.0008664857475978588,-0.0010261864796082334,9.306034252834494e-05,-0.001966321409845824,0.000213563421899092,0.0007703350619826278,-0.0010684684348645918,-0.0002551480928617983,0.0005758940254554645,0.0009564547175495985,0.00013859014325415947,-0.0009391889600813899,0.000687837635127338,-0.0001655948226033134,0.0013904262831216582,0.0007565742881747786,-0.0005353824714300487,-0.0005497116394291499,-0.0003104795755503112,0.001366690591528462,0.00013795178777814554,0.0015132592659258814,-0.0002743052388877662,3.766455360377369e-05,0.002455466358275992,-0.0013936822733469668,0.0009789143220879353,-7.391873930474857e-05,0.0021262347711319823,0.0007716502678681153,0.00029208543017572586,0.0016428712242588933,-0.0004683554735400025,0.0003702552828092065,7.519161255217094e-05,-0.001060252196932239,-0.0011615045681499375,0.0006905978896781101,0.0009147785999958427,0.0017835113531971918,4.5088029896694914e-05,-0.0007067437914360236,0.0005931101428203259,-0.00033921906829360166,-0.00035452547441420373,0.000342098073587864,0.00014672338408531355,-0.00033828556275805957,0.00013094312826368235,-0.00021784729386340254,0.00015508330654525997,-6.542203216083724e-05,0.0001880937928069211,-2.586192553955067e-05,0.00017166031297154768,4.9865300476605035e-05,5.3192731990786644e-05,1.3882830479772408e-05,4.397031961877844e-05,-3.0188280825542944e-05,2.614248267866076e-06,-7.625651509017908e-05,-8.44749043513969e-05,-0.0003814379366510745,0.0007924805037622801,0.0012252029766980262,-0.000552813334352413,-0.0013977600916159766,0.0012636093711094754,-8.207749617376164e-05,-0.000369223412088171,3.6186646611112427e-06,0.0007797390342824465,0.0003102670295262004,-0.00026025012764888805,-5.7125776555151664e-05,0.00023830240435602883,-5.379875749759403e-05,5.4857599370228965e-05,1.7339236150081157e-05,1.692353488552331e-05,-1.177984366182265e-05,-7.958592331200331e-07,-2.0838791863611594e-05,5.241593592864545e-06,-2.3608105724787914e-06,-1.5462846369582867e-05,-2.2996464658484386e-05,3.3451053195670405e-05,-7.67746388104628e-05,0.0003010068667173727,-0.00014137183607909436,-0.0003273201750904828,-0.0015347799196845924,-0.0007244863403184781,-0.00023276615568522396,0.001344016747995995,0.0001488533402466824,-8.625645378697311e-05,6.784485539758703e-05,0.0011675127085485296,3.822598693571655e-05,-0.0002477024011353565,-5.993204350831713e-05,0.0001018114390538517,-4.726280382598685e-05,-4.9822544176120545e-05,-3.888621086768889e-05,6.0194071793570614e-05,-1.866612662146383e-07,1.2605640316565997e-05,3.0381507327072177e-05,-2.2912618936957174e-06,2.329112227770179e-05,3.9021041681245455e-05,6.474244109228901e-05,2.7476901953090577e-05,-1.7879502880463125e-05,3.653288111842446e-05,7.071709849126515e-05,0.00012576454828940042,0.0001489037067266899,-0.0010499821233146134,0.0019147035215132703,0.0006562050422069879,-0.00018442586084238544,0.00033866957728576064,-0.0002188046994679657,-0.0010407453921876357,0.0003189302203724957,0.0001605105320473168,-0.00018173263999068413,0.00014305275822122524,-2.8167939136120382e-05,6.901420892724709e-05,9.252543955379569e-05,1.924594322608511e-05,-9.851591889903366e-06,-1.979627539531667e-06,-1.759746247043635e-05,4.2827307576077944e-05,-7.5493409231186526e-06,-2.331342646371727e-05,-3.7830356422515615e-06,2.8597642988232967e-05,4.759704939399315e-05,8.03564091758158e-06,0.00029887319811486984,0.0003110095761647228,0.00044486335959491655,-0.0002283085574724883,-0.0005768492251466209,0.0009425469264959518,-0.0008785963172005876,0.0002085378471297708,0.0006635326878483977,0.00039873423253236444,-0.0001226959342128806,7.251303686845465e-05,-6.99755060571761e-05,-6.083450177563499e-05,1.88935947276047e-05,-9.35889290965791e-05,2.8214744962704735e-05,-9.517579363407585e-05,6.528291436096786e-05,-1.082183313416002e-06,6.124005874933759e-05,-1.888009504441568e-05,-1.999563801653899e-05,3.988148581367257e-05,5.053066664516097e-05,2.5386939388047022e-06,-5.044189217050677e-05,-6.461180911899512e-05,-0.00032500146328582214,0.000437941684751959,0.0001366328960974092,-0.00012534502237045164,-0.00022760371680705105,0.001037595091469709,-0.00040680391706310326,-0.00026908194908162666,0.0002706506253401346,-0.00016999512345493815,-6.645153760390706e-05,3.222858532065222e-05,9.610404546202874e-05,-7.550530354760894e-05,-4.156615434207887e-05,3.2672195364805146e-05,-2.309585775977282e-05,7.214891612825677e-05,-3.466736506396034e-05,2.8716256194907114e-05,5.185903240150641e-07,-2.1806369184100907e-05,7.24612006164152e-05,2.1716785739273742e-05,-4.015446509619391e-05,-4.660101499770605e-05,2.0661414116311064e-06,-5.041231237274714e-05,0.00014728590499655733,2.0782626631472845e-05,-0.0003633145067729049,-2.324450245086429e-05,-0.0009721686859893164,0.00047327137293704663,0.0009436052252779145,-0.00010141935184623113,-3.835799219010193e-05,0.00017119085736251767,6.8127292105150256e-06,5.104733858119848e-05,6.0849411633792996e-05,8.451426327930824e-05,-3.886046140959146e-06,2.3473141991138015e-05,-2.4140250896021592e-05,4.799414277658568e-05,1.2354555408043352e-05,2.113128115516401e-05,1.5904284373074312e-06,2.6688403882528522e-05,1.708021819540103e-05,-1.34307718482711e-05,-7.040350885568992e-05,-1.5945172945365125e-05,1.3634271501514628e-05,-5.216597833914566e-05,-4.013455919339194e-05,3.414516149479602e-05,0.0009676730543622808,-0.0020836336749884,1.577236368853832e-05,0.0003786567144713482,0.0006780026060742503,2.6184593854526594e-06,-0.0001705113008076964,4.376536150383324e-05,-0.00017933125020166366,-0.00014184943891753544,-5.893816333385829e-05,2.362645128930758e-05,-5.37203742808209e-05,7.601133595299997e-05,-2.1945632316718727e-06,-4.2499310063546115e-05,5.550002175404214e-05,-2.9951238463802807e-05,7.173448721466656e-05,1.3025156432478792e-05,-4.930047378094715e-05,-1.365017126950599e-06,3.45425507383354e-06,-1.936186014182481e-07,-4.4990671041986695e-05,-7.650427612966408e-06,2.315252611203092e-05,-5.4337297847088795e-05,-5.6973981116724415e-05,0.0006828232384001251,0.00046534986396292236,0.0010829107913275376,-0.00043922067146995314,0.0006769826104122308,9.752759424353809e-05,5.855166786150807e-05,0.00010554942204816023,2.0390651518283672e-05,-6.193721579620076e-05,-8.53059014827972e-06,-1.3270666717695931e-05,-9.142298868322195e-05,6.614340911381428e-05,1.2851178872936783e-05,1.6330286188333612e-05,0.00010761596460200605,-4.433749038504006e-05,2.6468295286394272e-05,-7.783218915358853e-06,-3.132979220761881e-05,2.5091474978105113e-05,-1.3478183276037503e-05,-4.153609838711053e-05,7.032891904458841e-06,-1.3466180740265808e-05,0.00035329052572894565,-0.0001977272678824471,-0.00032546253267887876,-0.000737330691477793,0.0008197293004665318,-0.0010290904056861755,0.0001334052719969038,6.797750055230522e-05,5.114543713979729e-06,-1.3686636229841113e-06,0.00011637496198710394,1.5436333815608367e-05,2.1861916270045703e-07,6.409972548202187e-05,-1.7323833406329486e-05,-7.172600175861261e-05,-0.00010841750383373469,0.00015524036123450158,7.05292725679818e-05,-7.683700635070529e-05,-7.130008184898663e-05,4.0199266837956556e-05,-3.5616933988411384e-05,-9.227685675317196e-05,-3.4308399725965256e-05,2.4322057625494452e-05,2.5665640207388207e-07,-2.1856107028135705e-05,-0.00036326418217787204,9.250217978776232e-06,-2.1540719822313315e-05,0.0010849252158098219,1.6445984692151083e-05,0.0005084508607014204,-0.0009734784220151727,-0.0001410352943882181,2.247116912686229e-05,-6.260621107481799e-05,-7.65138021578439e-05,-3.403266838746758e-05,2.4558628404358542e-05,-3.916134498439371e-05,3.7193108515572865e-05,-2.938835952846948e-06,-3.9404170787976905e-05,0.00029351602722629475,0.00010583436307654015,-3.278906462818136e-05,-1.86154694918287e-05,-9.720038855266788e-05,1.385925276574558e-05,6.483426755348387e-05,-7.404778736785911e-06,-1.6062496487392712e-05,-4.227531156243865e-06,-2.852889006175075e-05,5.2992679694316425e-06,0.00012783295032944147,0.0012184070750954797,-0.0007155526411020269,-0.0007765974521407662,6.614202743107644e-05,0.0004911026144159662,-0.00011161621642288583,-9.559412054146489e-05,2.5279231100271094e-06,-3.638555654539256e-05,-4.179556870085362e-05,-8.495528946557071e-05,-4.2158750574923434e-05,-8.731122193393853e-05,8.38236360011966e-06,-0.00045291670841306544,0.001607874416873746,-0.0003322399978763907,2.5347294176489808e-05,1.994467398729223e-05,-6.691915560702848e-05,2.413907560292047e-05,-9.454205219819865e-05,-1.2402202953809907e-05,-9.422709949499742e-05,-7.067555284906955e-06,4.461030586400084e-05,1.0774786084813415e-05,0.0008788172109058384,-0.00041918859209389564,-2.5894732839960855e-05,-0.0011928692770109411,1.903043393779169e-05,0.0015255460248366562,8.200657254008037e-05,0.00010793807510313825,2.1840425642105296e-07,4.444837371166176e-05,4.706366691507933e-06,3.2480737662585624e-05,-2.4816000346591233e-05,-7.395464551316223e-05,-6.233758490278157e-05,0.0002767846391313663,0.0010769726341786912,-0.00014421999177530523,-4.14783556465792e-05,-0.000165288373918329,-0.0001079477405580005,-9.690544002888051e-05,-3.5608830867504045e-05,-5.4200629798484105e-05,3.1126524744688484e-05,-5.066607163289709e-05,-9.169855968963782e-05,0.00039966230222562675,-0.001006033863897679,0.0003062644339274223,0.0005213455322355953,-0.0003132601901215809,0.00041099417682480266,-0.0005454719838463989,3.5409079395382764e-05,-8.296596702035393e-05,2.6923878049618134e-05,-6.0714349590856604e-05,4.973915339581128e-05,-8.377597840658201e-05,2.6157822573822168e-05,3.820567052497184e-05,-2.820474988461663e-05,0.00041379267224161617,0.0002358271449413793,-2.0410452105376793e-05,-3.652373534305305e-05,-0.00014965456635052544,-1.3565381274919077e-05,-1.7828720513075533e-05,-2.5339382704218992e-05,-5.885548402504576e-06,8.250946860347518e-06,-1.122610806817987e-05,3.989464969344136e-05,-0.0005477639420149311,9.331278179472435e-05,-5.255725741491746e-05,-0.0012108964642173654,-0.0003648938210777039,-0.00075422411778725,7.00947348872688e-05,-1.8424895684497882e-05,9.218564585458298e-05,1.0625071472493072e-05,-7.277659161068154e-06,-0.00010935054596768168,5.006622736351265e-05,-0.00010063536498171495,3.4773106796330555e-05,0.00015642795810685492,-7.602647132674487e-05,0.00010961104404459861,7.576191821406742e-05,0.000141528616403281,4.155110755132106e-05,8.188662055466124e-06,-4.8605246467561054e-05,-7.245566635172502e-05,-5.289613369854895e-05,-9.238664388426651e-05,4.210563202517001e-05,-5.063294906333931e-05,2.9259135208421078e-05,-0.00021830608314411803,0.0014691323633288442,-9.752300692473723e-05,-0.0002610077294780133,-0.00036988703671206324,0.0002888916776351211,-8.248406815846397e-06,-6.598304163862477e-05,-3.130545801327154e-05,1.3480613125339738e-05,3.522363448724315e-05,-3.9783065268904697e-05,7.001436542748707e-05,8.050143089254752e-06,0.0001361137281836837,-0.00011310229777155775,0.00010558167651104075,2.921659786891701e-05,2.4602006909800293e-05,-0.00018831089313419303,-1.646132034009099e-05,-7.595640282440346e-05,4.2153521009651506e-05,-3.0182121615076208e-05,-6.258144948073467e-05,-5.854982065368972e-05,-8.446968900702959e-05,0.0002705459040458491,-0.0010272353756066513,-0.0006852017559642529,-0.00028263289699544114,0.00030054823931393443,-0.00028908178158910947,-0.0003146248652894715,2.812529480713307e-05,-5.4615223487618214e-05,-5.267461351854061e-05,1.6496085496948455e-06,-5.9317309258599335e-05,5.540422373188133e-05,1.710250489540214e-05,7.26517259814867e-05,-9.64567071807601e-05,4.5124900842050814e-05,3.25415068201558e-05,0.00013659539766112169,6.0479624185419065e-05,7.768799465555877e-05,2.146845575947548e-07,-6.949308316416447e-05,-6.489804835921624e-05,-2.456850284262256e-05,-6.36236662406582e-05,-0.00013843322434803611,5.297886869233201e-05,0.0002689365791663269,0.0006400444513698367,0.0010427896858053731,-0.0008571965685994429,0.00125291726200729,-0.0016385680935328897,-7.083486120527255e-05,-0.00022572500957791786,-0.000167804858613862,1.3921688735593586e-05,-7.924373795855158e-05,5.396163366497807e-05,4.31437454188003e-05,4.656384087412847e-05,1.8056237992801483e-06,3.301329143479831e-05,-6.573933210825712e-05,3.984983065526224e-05,6.194081043722592e-05,-1.4737288793992102e-05,6.932495830213378e-05,0.00012228517609110933,-1.390706907771844e-05,-4.1932171055558774e-05,-4.230270801521951e-05,-0.00023656029799760557,0.0002099898323925679,-0.000176012259284479,0.000891687802269104,0.00034259323221781657,0.0003807099594141522,-0.00013567405376414127,0.0006525214920306555,-0.0006260325161694309,0.0001372385018104695,0.00012548948406398432,7.246932559895614e-05,0.00013553215723774784,0.00016363519820609268,7.903827238871491e-05,-1.7089564068518102e-05,1.0609783393046579e-05,1.668628238860742e-05,2.6698030694643354e-05,4.751361947641971e-05,3.540414717992553e-05,-2.0431215223729038e-05,5.8128758953342186e-05,-3.9487323875515325e-05,0.00012599225880819548,9.565748511451873e-05,7.933006211082415e-05,0.00024081151508104168,-0.00024985293531437636,-0.0001932137575464208,0.0014154285800606313,0.00032942020461336485,-0.0004461256090181262,-0.001190320635897385,-0.00046666633056086093,0.0006430541891930298,0.00043227309697536215,0.00023161655404999558,0.00015941768681650235,0.00012752168442419897,5.8053546571076343e-05,-2.752727630992921e-05,1.8060713007847506e-05,3.1941233352468165e-05,1.8719651830948966e-05,2.5411703186511113e-05,-4.6444673207650736e-05,7.568023955433455e-06,1.8514055046941688e-05,8.246996667654605e-07,-1.939786074263601e-05,1.0580081919613071e-05,5.773143889210158e-05,-4.181296200514439e-06,0.0001023586813936276,0.0003750599265570729,-0.0003780162112269718,0.00035607159433547787,-0.0006536918775120262,0.0003846156684954166,0.00012310554684721517,0.0014745908773289018,0.0004998390722308205,-0.0009427746907024609,0.00040807653077060135,0.0008249928615274016,1.7667223831223378e-06,-3.0299774830693654e-05,-3.6489677796081206e-05,-1.564960806621496e-05,-5.475441821068197e-05,2.0107267907137558e-05,-1.020615548748445e-05,-1.2492987799999147e-05,5.255257531535003e-05,-3.326365847339946e-06,1.6794395002928467e-05,-1.6471953624866247e-05,3.6967356340453835e-05,1.546330207326599e-05,-3.389004585923998e-05,-0.00015576274513679107,-7.690854979745636e-05,0.0003885105152193896,-0.0012193502900195163,0.00017082923414695264,0.0003759827318263395,-0.0006672611442248289,-2.1239745698342638e-05,0.00029956799208954304,-0.0011898579562593173,0.0005206696024801089,0.00015825337685147073,-0.00022889451014904139,-1.2211571953653529e-05,0.00019542067182391418,2.9773865905778803e-05,8.952737770249845e-05,-3.3922581456164065e-05,7.903542222744385e-05,-4.2051501886904846e-05,5.6122357751677704e-05,-2.982106510250604e-05,7.466951343022832e-06,2.3945481302525655e-05,8.959827519427772e-06,-5.2529919394833646e-05,0.00032630889193912063,-0.00016067134816457555,0.0004194259384980234,-0.0005939642329670092,0.0013347930191136143,0.00033231032413864187,0.00024438830378201853,-0.0005433996099949989,0.0006762615525766139,0.00040944406421679347,0.002137088676997932,0.001086028183317253,-0.00019145126352568265,0.0012307096111550883,0.0007898457086849692,-8.918526505863333e-06,-0.0006047344229918455,0.0004564979158776265,0.0009474670656257206,9.291334644609059e-05,0.0003868987205274555,1.2530758919407532e-05,-0.0006050346832393496,0.0008139982461028133,2.7503265860808965e-05,-0.0001348026271374668,0.0011104182713542986,-0.00039242296084188513,-0.0003926936883730803,-0.0014864462626475589,-0.0014275545272518855,-0.0014686587793093214,-0.000846995482506982,0.0008235720979272027,3.421406722902559e-05,-0.0012360243600783513,0.0010730437017245614,-0.0005968998097612005,-0.00015940728762098288,0.0016854310359383853,0.00014623392633406757,-0.00011961214929100128,0.000897576711458653,-0.0008820060659536361,-0.0008970178627091818,4.953378985541462e-05,-0.00012638243894408374,0.0008613845917805375,-0.000521629460972825,-0.001366308131002275,0.001638091322931176,0.0023415594457168037,1.4692536816844626e-05,0.0010930496057884043,0.0023660415517880833,0.0003542322506512527,0.00018249161091354188,-0.0007108800404084029,-0.0008477996319780634,0.0011493537247738994,0.0008266278863486853,-0.0006858330676341104,-0.00010813929143355105,-0.0003291696318937845,-0.0019731515230079766,-0.0004449658901658701,-0.00022879735985442684,-0.0005401037126887415,0.000885458998383673,0.001572615338171053,-0.0002684387949231648,-0.0001728593874613521,-0.0008348088894105932,-0.0009343401096103196,-4.0287816381712194e-05,-0.001438485739396006,0.00015602636429234984,0.0013189306802948199,0.001109296709305721,0.0011409715150059174,-0.00016582274428882798,-0.0005181824087789888,-0.0003220221107256352,0.0012171887903208028,0.0005279213540940325,-0.0002067630129514303,-0.000993683955430362,-0.000633129613503064,-8.766312996925929e-05,0.0019805582140654393,0.001185492885677708,0.0002982825129128272,-0.00013760370978872782,0.00012875563868545298,0.0010161882440755249,0.006373939516989391
-0.0005489640358310472,-0.00017263075579158904,0.0009840728343654473,0.0005228059868141455,0.0010293833583945866,0.0007740632418459514,-0.0009491635056848163,0.0007427775755120269,0.004664117129537626,-0.001076166619940852,0.003350463029998349,-0.001981002630455253,0.0007462314869012832,-0.0021401963781182975,0.003035324269859585,-0.0007041847083778946,0.0011786037604339938,1.4674881278986529e-05,-0.00013114043476476767,-0.0018419552105202741,0.0019409050343490442,7.518508103421251e-05,0.00018556671271053454,0.0016870543772718044,-0.0007989127893319875,-0.0016960406088616514,-0.0007420132708066407,-0.0018059362283947278,-0.004233392603799124,0.0008527644726247924,-0.0010798160741148088,-0.0008818455625422966,-0.004668818447426601,0.0001052529524635526,6.702137194010416e-05,-0.0006182839563858289,0.0005805159140238256,0.00041597335490134446,-0.0019309209944907424,0.0005698855196904218,0.0007974093097425985,-0.0014463639480968918,0.0006258285438909619,-0.00047949602344806233,0.0009706198472972851,9.898074564192519e-05,-0.001201959816394621,0.0027124594020474374,0.0014786600625864565,0.0014846710680491773,-0.00015675465336198457,-9.447838371021144e-05,0.0008385852655245357,-0.0016879585516532576,-0.0022904475075695985,0.0006131297971880834,0.0009529838073670943,0.002651272918153341,0.0007391942840461602,0.0009311511042944393,-0.00035807515479312213,-0.0006642618879103418,-0.0013940587775799207,0.0011720802635423327,-0.0011507739752373725,0.00019834380821117867,0.0009995144986963758,-0.0009873478893954908,0.0005126189173317759,0.00038344088068267487,-8.111999337743689e-05,0.00023626508102196457,4.677865458838082e-05,-2.3183824691692945e-05,0.0007741522359540967,-0.0010123155442525594,0.0014245705969539585,-0.00018730436001306028,0.0013338943499872358,0.0017207587708018002,-0.0004713943388640063,-0.0014002986199813591,0.0016862512875020635,0.0025537568856801862,0.0035638893704849073,-0.004175675109614599,0.0011033425280201486,-0.000986727533403911,-0.0015308428857520595,0.0010005791214830577,-0.00023156955581581876,6.044858374450006e-05,-3.8271113195390005e-05,8.394683315877428e-05,-3.054637244163244e-05,-4.6564524068603425e-05,4.7435395557036963e-05,-3.718050314448912e-05,0.000137916063534263,3.5028225884123354e-05,2.609440536038496e-05,0.00018227543295292262,-0.00019780465340258138,0.0001307307174758382,-6.000771807854882e-05,0.0001399664156117031,0.00020591222283214416,0.00011944023305238138,0.0007960949838416095,0.0013409834918379389,0.001960120346538932,0.0027542005678408282,0.00020777160084088642,0.0024811510489293476,-0.0027675511175235604,6.763949849036832e-05,-0.0007536911734636123,-3.088627781671141e-05,7.27762411133967e-05,0.00014586801586548466,-0.0003506245727845324,0.00020724917522804698,0.00011671912073028465,7.296155164822349e-05,6.033910303418488e-05,1.669907536867854e-06,0.00010726384323454102,-9.343000646513597e-05,8.23842733997035e-05,-7.004371940445842e-05,7.059103199323624e-05,-2.2820598783737656e-05,-3.160776799144768e-05,-0.00010005763761484869,-0.00013827497401541766,-0.0006456645042425442,4.671534018087925e-05,-0.0015455604863758576,0.0006863529529134021,0.000393375826648959,-0.00010886676552437566,-0.0006779910616203089,0.0006759229087304058,-0.00035069310033957607,-0.00015918660599111706,0.00020918322349048474,-9.625005804943937e-05,-0.00010084221840575558,9.943172010845949e-05,-0.00013905935337749087,-3.835401162312346e-05,-2.5297000646629098e-05,0.0001020230490980309,2.8962988989637145e-05,3.924468481847007e-05,-1.0777570259357105e-05,0.0001058535220867865,-7.625571656559582e-06,-5.4428652909201125e-06,-1.657301161188049e-05,-5.976033708625719e-05,0.00016701559892202521,-4.245455707786901e-05,0.00045308933200365574,-0.0002511796970925545,0.0020552392794533914,-0.002009859023030934,-0.001093053328525967,-0.00040477861011153915,0.0012618206150641163,-0.0015609011503058823,0.00011399031195030371,7.81296108894533e-05,7.450307810166583e-05,0.00015326409336987104,4.2149699468556e-05,-6.589279303142667e-05,0.0001280962148042207,-2.147210680963907e-05,-1.9431019968506325e-05,-1.63274773934928e-05,-6.614780456448352e-05,2.4901041073062402e-05,2.569603897616124e-05,-3.881687140668694e-05,2.6088433210925965e-05,-1.8770940719742973e-05,-9.84615473570774e-06,4.176524608257275e-05,-5.3935580292529053e-05,3.6754781923701955e-05,-5.809611323464095e-05,-0.00012675206486222404,-6.03004413443492e-05,0.002175132365839834,0.0017676839882450751,0.0012472451041100618,-0.0015192326940070278,0.002356369000331704,0.001625379656645408,0.0002439464873462225,-0.00021002449662230367,3.8976339214452996e-05,-0.00010120660556672129,1.7936096161567938e-05,-9.4152016029702e-05,-4.108809194259405e-06,-4.941431927878853e-05,-1.5959969503005073e-05,-2.406411975880429e-06,-0.00015308045959275263,2.5266250796941725e-05,-5.98281067436951e-06,-0.00010457053229944585,-2.5800758931961848e-05,3.613385985503509e-06,-7.009564164662044e-05,5.374367094981847e-06,-2.1432974402126742e-05,-0.00014795277657266015,-0.0003174518208073282,0.0011792783896989768,-0.0028504699321315607,-0.0004903327965893045,-0.0006087126579396585,0.0009332443052906536,-0.0007162905001007747,-0.0008314031020385491,0.00016274195049941279,8.022037349446993e-05,3.6705744463945075e-05,6.4491902440361876e-06,9.789684635279003e-05,-3.961028890807697e-05,6.0883537304868424e-05,3.407932110466999e-05,-3.258086858090245e-05,5.629804706415789e-05,8.633596872015953e-05,-9.024037312087285e-06,-1.8107964684344405e-05,-7.424671041860592e-05,7.352836400733968e-05,4.023770815809319e-05,-9.937616452510359e-06,6.80638634025163e-05,-9.907186381251116e-05,7.149582087542447e-05,0.00010659133046082674,-3.52456870582607e-05,0.0032582215786906843,-0.0011696715602100977,-0.005177425291778476,-0.0002824080351892799,0.0003127697601150031,-7.185683150736678e-05,0.000131098282619823,2.5629919391248132e-05,-8.281109742102298e-06,8.232615858942e-05,-2.2882148748668008e-05,-8.9288347322726e-05,4.162032011176611e-05,0.00010299482622680434,-6.434085397470646e-05,6.636418539412298e-06,-5.964157338702453e-05,7.72949251921463e-05,-5.469692845015868e-05,9.705137830624388e-05,-3.2946123548780425e-05,-5.951537012839712e-05,-4.675900004213682e-05,-5.435596759549924e-05,0.00011836099492291974,1.1324949768231566e-05,-1.4436529001968582e-05,-0.0006394634890242307,0.0029440225622747937,-0.0020947025752781068,-0.0018738186453559624,0.001941357456442444,-1.553639434191678e-05,0.00028919844804462923,0.00032298317113218025,1.5432659962370462e-05,6.149947238314694e-05,-0.00013812753564246532,3.0398541827534285e-05,-3.658559325732131e-06,-7.002446629973853e-05,2.213892421094009e-05,6.053899641052761e-05,-3.042367221041311e-05,0.00013088816018561218,-0.0001597738200704614,4.4394654871725975e-05,3.7053122550690515e-05,9.338194000413445e-05,0.00010605175563583105,5.8843002836648714e-05,0.00010036886921906433,-7.623446504132544e-05,-7.182215942663599e-06,0.00015054423063726,0.000256943371689744,0.0003140613514988136,-0.0002083915921733126,0.0015948204472564509,0.0008063451617305178,0.0006249845170802279,-0.00017758583543844159,-4.082358207185138e-05,0.0003191379663902254,2.7542391219164894e-05,-3.106256412010837e-05,7.612736690818965e-06,-1.1744231525736247e-05,2.736860869869892e-06,-0.0002453926017148417,-9.233638069493233e-05,-0.00017268821143559196,-0.00019741694151662742,4.347758910377281e-05,-0.00012389491808063695,-6.987790573357439e-05,-5.671430141841044e-06,-5.574014380266279e-05,-5.184972401026892e-05,-0.00011937640031557759,-8.960278060976372e-05,-3.403668384916077e-05,-2.61164657031146e-05,0.0005897201487038636,-0.00037585203539132993,-0.0024221437094997522,0.0030089697183085795,0.0016373411104736134,0.0008593957524742069,0.0028135696372452584,0.00031107406955447996,-0.0003455547466972341,-0.00016377946939075128,-0.00017519513349247874,-0.0001427862905309025,-0.00019783468083663103,-8.776892587841235e-05,-0.00015541225243676307,-0.00020185529765117532,-5.392743224123635e-06,8.095848002422426e-05,-0.00011953176086268447,0.00016234103912848158,-0.00010830758072124212,-0.00013781783854082286,-2.18051597012138e-05,-8.511417194968871e-05,-1.822555823583795e-05,5.758705110757347e-05,-0.00011511711334851642,-0.00020201123117925737,0.00024752297731838596,0.0013320544025734165,0.0004179631675426121,0.00292227169120355,0.0012729726301330957,0.0006245875379280175,-0.0019068863729664806,-0.000754332812897298,-6.141511292725131e-05,-0.0002013683130475969,-0.0002030418555789594,-2.540534267493101e-05,-0.00011524302460151799,-5.189258992158163e-05,4.215853162955335e-06,8.387010958448536e-05,0.00015097973213485522,0.00028220491510037166,2.920266408145203e-05,-0.0001454469391139919,2.4630760057799128e-05,8.0903040236599e-05,-0.00012475291521864967,-2.6782355186045007e-05,-4.761840093846746e-05,-0.00016895214072353004,4.1628656404027204e-05,0.00021476391887184643,0.000264520210564668,0.0009729114356131791,0.002135755344479774,0.003145875073810131,-0.001401458483418938,0.00023993729546610554,0.00172544073928289,-1.840510256692629e-05,-0.0002854683631649934,-7.56820998721458e-07,-3.34135473720569e-05,-7.549592219773232e-05,-4.7266274268480124e-05,-5.7123000064744286e-05,5.66533696866392e-05,4.314514494119237e-06,0.00035121392209736327,0.0001031000633176446,0.00013320610021867046,0.0001329012185818726,-0.0001308690641345367,-2.5446664366633037e-05,1.3391577403629867e-05,-7.988549798648714e-05,-9.601566442269619e-05,8.648283791430969e-05,-4.4873131822797865e-05,-0.00017891890376680458,-0.00045026565924316184,0.0013269140561712675,-0.001069123930107413,-0.0027874613133619247,-0.0008743339927224508,-0.0018366227619583883,0.0008237170578204792,1.1085298809788632e-05,0.0001899211740952235,-0.00013667114875370477,-3.1585294566139916e-05,-2.484912034840612e-05,-7.277256475304861e-05,-9.114789685154591e-05,6.7110561671121505e-06,-1.402657940882679e-05,0.0003316960292132423,-5.8383693878616416e-05,0.0001789149709932325,0.0002102389638262217,7.554110862241156e-05,-3.5741821076875485e-06,9.623342395891077e-05,0.0001094704976654301,3.134946201499393e-05,-8.814668314954636e-05,7.749964984142543e-06,0.0003259642595493384,0.00037382717796990116,-8.975617132195475e-05,0.0006618394072976236,-0.0014284711120597926,0.0006215298205244635,-0.0012192950568068947,0.000353526752506092,8.25881267872558e-05,-7.726933157722448e-05,0.0001153240011588343,5.102776868111392e-06,-4.079705089265421e-05,4.561729708179446e-06,3.8116541671996684e-05,-0.00022098615168025804,0.00034368318175549,0.00022085529607723808,0.0001958952940852715,0.00017513772246356696,0.00035965483244177615,0.000106850615794081,6.61614282472002e-05,-5.758042869334276e-05,-3.6563591478436415e-05,5.5195674934394034e-05,-8.587341435880962e-05,7.513630229433535e-05,-0.0001717484711478423,-2.249615304737631e-05,0.0012569415496763003,0.0008915856095123749,-0.0012337711039445073,-0.001592818320326747,0.000745852444579323,-0.00016315932782808712,0.00021730609090972377,8.148154968633638e-05,4.191516392694234e-05,-7.162621234723179e-06,3.0379339777448014e-05,4.199944951188521e-05,-7.017448666052882e-05,0.00017673724313776312,7.649222346146206e-05,0.0002981206751220683,4.601607486808684e-05,0.00027296597985278226,3.6969136602935104e-05,-8.765693297850541e-06,2.4359152935107126e-05,1.2524433850913397e-05,-4.613497286832732e-05,0.00013003704625609742,9.102680733940162e-05,-0.00013629836402845406,0.00011922488758681418,0.000435064340759881,-0.0002002879736103377,0.001825504580802214,-0.0006235582967073494,-0.0005818675699717085,0.0014640335641701724,0.00043658403154335154,-4.900178361216291e-05,0.00013932970841829938,1.9079291806427083e-05,6.76664558741328e-05,-5.516565861693641e-05,-8.386709651924534e-05,8.941133698770962e-05,-9.219976714583411e-05,0.0001715834289049492,0.00011526411254947355,0.0001956454303782551,-4.4689475796763634e-05,0.00018097449945650435,-4.205228027771152e-05,0.00010348318367183612,7.12287038104123e-05,8.146706958170845e-05,-4.360394166314646e-05,-4.00545550127418e-05,0.00015660517327708082,9.408810926221384e-05,-4.69331527886193e-05,0.0005373079861339565,0.0026002952885558345,-0.001949116171802892,-0.00038998820093120307,-0.0016395702860717287,-0.00019088107783895268,4.9723192586947906e-05,-1.5220232111882483e-05,9.65326549381149e-05,4.230928286226565e-07,4.612865894915857e-06,8.550855765968729e-05,-3.18633752134298e-06,4.755107006690004e-05,-8.090028482989065e-05,6.405281474024249e-05,0.00012151394398528942,5.182501336699341e-05,8.85447940429801e-05,3.2011425576024266e-05,1.4994048353450529e-05,-2.1103367281227747e-05,-4.7522261686895606e-05,6.463966622335948e-05,-8.831593434118629e-06,2.89694056377493e-06,3.3923686862858196e-05,0.0006210152111172512,0.0003106891398828651,0.00051291411568739,-0.00010886629859409303,-0.0017955066988707483,0.0005073248084487766,0.00019899187725175294,1.4544065331913505e-05,6.305288588692899e-05,-7.398604900165154e-05,1.3431628653751831e-05,4.9846280099491436e-05,-3.134989462517945e-05,-2.4447097820113478e-05,4.100581619257554e-05,-3.8678939659475553e-07,2.30012061169238e-05,-5.11332427134692e-06,9.91408140042227e-05,8.79704769549336e-05,-3.517820898547158e-05,6.979495935342112e-05,8.419356574482922e-05,-2.091344714190424e-06,5.706510861083064e-05,-2.87831378674476e-05,-5.974202347051524e-05,0.00022755488269344312,-0.0005319580333538066,0.0003247251793908612,0.0007966512447460661,0.0018102868371914042,-0.00013787388181203675,6.735541128018163e-06,7.966979325035872e-06,4.7225634953233786e-05,-3.976439892461152e-05,6.999472483427971e-05,-2.8984598959870544e-06,-6.56042292952394e-05,7.549224392207343e-05,3.583583356165515e-05,-1.3974032412600312e-06,7.081548560490536e-05,0.00010089766680563411,4.920975460737109e-05,1.0176526221358784e-05,0.00015095120863841544,9.660551383806892e-05,9.755595725594035e-06,0.0001219798632282193,-3.61896401057174e-05,-2.4639945416796843e-05,-2.630170949083875e-05,0.00020565043292107218,-0.00010802188874186464,0.0005397694038483704,-9.166820734300002e-05,-0.0025124553969881197,-0.003019372649292879,-0.002642198481271965,-0.0001379366723459688,0.00015573842344314415,0.00015696185353573054,-2.6415467758724668e-05,-3.712097572386268e-05,-9.156397233702276e-06,0.00016811695923578396,4.6758888983061686e-05,4.511259660847089e-05,-7.262572507701903e-06,5.4005688108121896e-05,-4.0990723787937e-05,2.1800413394432172e-05,4.6511858854701715e-05,0.00018431362299601434,-1.6737165881443306e-05,0.00011208001270092416,-6.278954639691442e-05,0.00017593216334944525,-5.7509855602641546e-05,-6.102213482163214e-05,-4.5089752892239765e-05,-0.00011016040905710914,6.066098685561343e-05,-0.000701801485892762,0.0018298736223448658,-0.00046450804822789626,0.001779293379853636,-0.0010034601507455804,-4.989467883774468e-05,0.0002836812502480567,-6.52695093718023e-05,0.00016159812344616973,-8.889961657206763e-06,0.00013420099183239498,-9.995723522022298e-05,6.64856450550283e-05,-2.6569131419733327e-05,-2.516801311095232e-05,-6.43411710348242e-05,-1.8319511750422568e-06,-6.031649125222936e-05,0.00013883679845980504,0.00014360853290389802,0.00013089093883667663,4.8895861802459445e-06,9.488028728690812e-05,1.9468973962693398e-05,7.969629534998468e-05,1.878806864002644e-05,9.510380857885407e-05,0.0017737909969580655,0.0018619165812877037,-0.0002946303724108701,-0.0032148526328479865,-0.0021198693228180673,0.0025110041710224226,-0.001991408878114956,0.00019352935271282207,9.675991741148367e-05,2.258152917257797e-05,0.000253479618969505,-0.00012081391748512346,0.0001356580054956806,8.563100078465974e-06,0.00011701530021093406,3.451710738468228e-05,-3.815143837833032e-05,0.0001225421757425002,6.964860644164891e-05,-8.635254621445695e-05,0.0004758887358669757,-0.00029760852670341134,0.0008799215285566625,-0.0003383425067906183,0.0006495550180979446,0.00016051139537372888,-0.00022737518103582363,0.0010542897495651633,-0.0014214812985570077,0.0013103505200686844,-0.00027132588906347843,0.003319766243335895,-0.0004530064142676815,0.003406370026979841,0.00124558364409659,-0.0030900440198612933,0.0019351652846735512,0.0006650358036656839,0.0017912445186381853,-0.0015201182964563187,0.0007313784001125104,-0.0001488252950500868,0.00027355219439635474,-0.0006135009486894147,0.0002762746458756637,0.0003433277617123989,-0.00038487841753874485,0.00020490469192085276,0.0008960853988027526,-0.00024279351761718332,0.0011089755784043087,-7.261755730214592e-05,0.0011375992501291426,-0.003626380645261648,0.0005479917987732952,-0.0026678355979658647,0.0016478834281000304,0.002025957288081505,-4.989326858657883e-05,-0.0010993185911019124,0.002350066793951805,0.003499428626708323,0.0017625578062969022,-0.0027466402959732544,0.0002314764841045841,-0.0010402627220725408,-0.000378533744564688,0.00019235229581025803,0.0023006904819408147,0.0020930668849256373,2.2836685986321603e-05,0.0032932603157996565,0.0008216520380353864,-0.0009211125823520017,-0.001859507891160253,-0.0009913042254476312,-0.003479591833034229,0.0008541213636028555,-0.0032708910652221312,-0.0014563566721527144,0.0005357053059801414,0.0035021414768720283,0.0013638852213930103,-0.0034950468402843923,-0.00036172101534656664,-0.00046562190890442334,-0.0001919582007595122,-0.003923385565185816,0.00013952401781985868,-0.0010063514368314555,0.0011911452497867236,-0.0006166310988753726,0.0002987689693252221,-0.00011350800583717624,0.0008663516380697789,-0.002626994083188755,-0.0011532973919836237,0.0011368046337533397,0.0026170312328818585,-0.0027321723013916666,0.0009261718719489054,0.0030413449473580545,0.0008160807146456728,-0.002753666995449891,-0.0011604681612218393,-0.0020798935289504383,0.003708962300273025,-0.0035202673619906116,-0.002413594197339969,-0.0010312046840550426,-0.0006964482724322874,-0.0006779309690234103,-0.0007829105504056216,0.0029327663971847606,-0.002099080323799629,0.01867970434315505
0.00017203891068871824,0.0036198052915863838,0.0001954334979712563,-0.0012245571778126407,-0.0008826647501061213,0.0010717642101504,-0.0020094008426673818,-0.0024256609672340668,0.0008839296898832394,0.0008422984120315113,0.0012350965768321703,0.0025699251470388956,0.002440376746097511,-0.0008238785272181304,0.001072008252441331,0.0011816348490256284,0.0007142977597356936,-0.0006694277991381031,8.094023065297051e-05,-0.0033240948776163404,0.00022063396107099842,0.0015851266986523227,0.0006783494235972631,0.0013729014146402069,-0.0001337050678556495,0.005504552520192524,0.002197970244182418,-0.0011254257220130737,-0.0008365482210592329,0.0006608498667568796,-0.0020761921222061386,-0.0005173374131445807,0.0007678343225623607,-0.00048809704037496016,0.0013895680171136793,0.0015519242044797765,-0.0015463670318686118,-0.0008654154660705932,-0.0014097951329898328,-0.0017114814052998917,-0.00021586500442125067,0.0007982068518584406,-0.0005596506704442783,-0.0008346339296980282,-0.0010403187713019513,-0.000588820232268944,0.0006141154136117821,0.0034339585678799384,-0.001575333438208898,0.0036373847682667354,-0.002090318214531414,0.0009462443730511028,-0.0009048759717977806,0.0010710989406437221,-0.0016597676775876313,-0.0017935257677232919,-0.0007591579140665966,0.0005253346541227374,0.0008736016711014261,0.0023212884722878246,0.001437769286086979,-0.0005639501610213149,0.000545843885853603,-0.00030628264184662246,-0.0011625053146560038,-0.00036471119740966174,0.0003310567222571392,0.00020500264490749126,0.0011891846808569709,6.593760697290105e-05,0.001300057817321414,-0.0010754402968692726,0.0007403481200779077,0.0016479956671768548,-0.0009488972855977995,0.0014952092388602171,0.00020389827328531895,0.0014058569594821713,0.00020110202759199627,0.0010744877889711235,-0.001076056394316821,0.0002568062294256296,-0.0024907829015899663,-0.0010965634373199112,0.0015093636530202348,0.002298684563182593,-0.003856011919872504,0.0021637776219240457,-0.0003143705458725915,0.0025228562933626297,-0.0013094555469109898,0.00045997981384088976,0.00021959324022848697,-0.00029648625783635155,0.00048233387935974967,-9.709656320663548e-05,0.0003791627375693968,-9.181238491853469e-05,0.0003825123070989836,0.0001477177099222871,-3.7269156942458526e-05,0.000283983879185247,0.00028082854147555916,-7.262228374489525e-05,0.0002360141750408877,2.2496405635175076e-05,-0.00047611386836288183,0.0007546687535213703,0.0011491692426813666,0.00025105214023664335,0.0015751774022248755,0.0029764141143842626,-0.00021873174765602021,-0.00020360874202897394,-0.00033957307084665767,0.0006228676773834124,0.0002471037766117838,-0.00013067080793371239,0.00041873970534563737,-1.2256600945441398e-05,0.00010653315481407022,-2.8265867612137924e-05,0.0002764664719309175,-0.00010241127445133336,0.0003219138901598695,-6.970935628918679e-05,0.00016532631486306654,-7.31608805897635e-05,0.00014929899682672096,1.5438911290903412e-07,6.273920755245008e-05,-5.452769923851124e-05,9.222904465966582e-05,9.545646600089656e-05,0.00012523653196108882,-0.0008894228565356106,-0.000337686463062134,0.0011197325608093833,0.0008144294104026617,-0.0008873948963052242,0.00021457794381807282,-0.0016097720917154223,0.00169224745548123,-7.633734363820047e-05,-0.0001520558960042412,0.0003937912921545897,-0.00026992440052572494,-4.604935539987559e-06,5.723920554862906e-05,-2.6366252848544075e-05,-6.383805110465185e-05,0.00010432614809392088,9.359843975360882e-05,8.266879094988994e-05,-6.670187317348725e-05,0.00012245023598318056,5.6498932571390215e-05,-3.0086769921649353e-05,-2.6725068567882287e-05,8.529677954156878e-05,2.9627437201518864e-06,-3.97091564406718e-05,-0.0001269631226188733,0.0005542875923107912,-0.0006088684110811364,0.00010382016583271314,0.00044711630208753295,-0.0024483570019910167,0.0022696871972730237,-0.004855700001457353,-0.0008061417706207094,0.000794279088040549,-9.07463762907755e-06,-0.0001777393834423869,0.00017928019078572097,4.4817739959356756e-05,-2.8596499239162687e-05,0.0001221999414663874,-6.362136804533708e-05,0.00015541577769775244,7.863017387312737e-05,0.00015699915501379835,-1.302067219044467e-07,0.00010927238200475475,8.51819875552079e-05,-2.579304534059551e-05,8.721080940170094e-05,-6.210109967082038e-05,3.9904188144379744e-05,0.00015117271000357826,0.00017298889871401012,-9.0974278513253e-05,0.0008238529593404646,0.00015074375530012285,0.002357722444776368,0.0012215017853071525,0.0025907662464803027,0.0020099498540127464,0.0009683562723572653,0.00012756518111217696,-0.0003553033895348102,0.00013170552351867868,-7.954530873679252e-05,5.169649840675375e-05,2.9381030390851492e-05,1.2239312896664134e-05,4.367680977914942e-05,-0.0001296119932002182,8.32555462403628e-05,-9.434865906269435e-05,2.2222030168855822e-05,3.689192470219399e-05,3.910300334572514e-06,5.388178964180895e-05,-8.891669462075466e-05,-1.769054418397642e-05,7.74079838968952e-05,-0.0001710454102568041,-9.122517119875776e-05,4.670323347503048e-05,-0.00026303994194176034,-5.639947526964173e-05,0.00036074364285482163,-0.0008875763986351398,-0.001439292001955167,0.0014042371170924217,0.0006354862970156493,-1.544237553122163e-05,0.00023574860680314683,-0.00010910167991625558,-4.200188875730371e-06,-0.00011627236999264823,-1.5592231908761328e-05,-0.00013560104817051527,1.1168042641045844e-05,2.59815057966524e-05,-5.4389757946185155e-05,0.00012694714610800642,7.19147973541126e-06,2.7109160593574017e-05,-8.499815406808574e-05,-8.701873570032131e-07,7.985112123477106e-05,3.921017555774762e-05,-1.7667088525128057e-05,4.19167757787324e-05,0.0001017566345906727,5.651070041204874e-05,0.0002766846310310947,0.0002360409129843477,-0.0006188537858836246,-0.00172298989426041,-0.000949045539836213,-0.0005292291667002777,-0.00028367093357633405,0.0002617686897870425,0.0004242723430138082,-0.00010099677473144122,3.359339958953003e-05,0.00015493432494102094,-5.402281647874825e-05,2.0662483178731685e-05,8.609006776471445e-07,4.508405293862129e-06,-3.3503028970554086e-05,-8.601043618652535e-05,3.2651583987330576e-05,8.175919548833455e-05,7.341458369490746e-05,8.753582089101111e-06,5.277583302437314e-06,-3.0365782276378303e-05,-1.4947529171818741e-05,2.4081959599832337e-05,6.981926782885159e-05,-9.80841352183977e-05,-0.00022428193346485902,-0.0002387385783927387,0.0012445074066926853,-0.0029109390940911667,0.0004192309346594675,-0.0009062088138738211,-0.0021642276105995895,-0.00016953756716845889,-0.0003792897717082473,0.00040022111182283146,-0.0002171358574655207,2.5418809189068324e-05,1.7444361928241857e-05,-5.523434672349142e-05,2.39269112336897e-05,-3.425805554640657e-05,5.049836461587e-05,4.231515153446663e-05,1.1357357136664026e-05,-4.309112039397808e-05,3.198712428325451e-05,-0.00021644019425500448,-9.470069825627016e-05,-1.0514913174334423e-05,4.056061951302793e-05,2.8027841794309952e-05,-2.7322433242787762e-05,3.684900791791224e-05,0.00014057837268158756,0.00032761756063449856,0.001838827355003167,0.001220906337707467,-0.004076487940902443,-0.0010368947529246775,0.0009618269329571688,0.0013283777001531737,-0.0003411381178749784,-0.0002551283624544643,8.870073224334554e-05,-0.00011369078695159943,3.9893702612221055e-06,-2.1123701667031397e-05,2.6789065261087486e-05,-2.387679086788934e-05,7.110483640258153e-05,0.00015949688616845661,7.979465525907031e-05,0.00014675563558190843,6.066796657927531e-05,0.00011641997959524128,-5.4241460149203474e-05,-0.00015428105459579233,-0.00011853583290481967,-0.00011750123916482152,-0.00016481151048393892,-0.00014398218314550784,-0.00015988926431511133,0.00033610073071509497,0.0016543935352797134,-7.248395065573288e-05,-2.0287787082712283e-05,0.0008097020805259703,0.0002802692611063029,-0.0007609687151870284,0.0006719576096554433,5.293232389418437e-05,-0.0001705310966507701,5.9857292597173886e-05,3.269912234473305e-05,-4.34859113816171e-05,-3.4575040215903755e-05,3.380845012693895e-05,3.689078746948321e-05,2.4957547516163414e-05,0.00037085854250697853,0.00023063647049852143,0.00026292761333560066,0.00014163530154201118,8.883350993762508e-05,0.00015258196915368498,6.969231135596585e-05,-8.053646527743396e-05,4.018015884914641e-06,-1.800613220852374e-05,9.551871937433804e-05,-0.0007460839382414583,7.168094699344651e-05,-0.0005721490086720848,0.005194050903237685,0.0009623116521122674,0.0012095525608409874,-0.0006235335005990925,-0.00039308511504173617,0.0001266887292107454,-1.5003734937435106e-06,-0.0001393997946440035,-3.808704463164822e-05,-2.8054248081447325e-05,6.370156426920362e-06,-2.4896977773400386e-05,7.793157096323139e-05,0.0001933946152695848,0.00021792306677159007,0.00012420243376912166,0.0002815883392233362,0.00012170559609973527,1.575095439186082e-05,-0.0001242621476896539,-9.297204713082895e-05,-7.864340033901128e-05,-0.00018389656199342685,1.2292780620455114e-05,-0.00016600872314546716,0.00010544191354655216,-2.625093173994064e-05,-0.0018186003528025546,-0.0004001856904342349,0.0010855963189742857,-0.004378872362543668,0.001948587175872693,0.00012965197669200824,-0.00019151839242250585,-5.198800770522425e-05,-2.1300559492755215e-05,-3.584973848984362e-05,-3.984416187148652e-05,-1.8141667252131316e-05,-0.00013680781223912586,6.504333329764023e-05,-1.79038780289964e-05,0.0002718235236294081,0.00011297675371609028,0.00023694377585309345,-6.595218317587831e-05,8.222245638511705e-08,2.395163903089713e-05,-6.802130317860172e-05,1.7529056586885854e-05,2.3263273643620713e-05,-0.000165635476140253,0.00017216273824825074,0.00047066909890929737,0.0004685996531169634,0.0003464203864513571,-0.0016526373704517927,0.002074845578334976,0.00024723693960922166,-0.0005095684985788052,5.438571018334323e-05,6.013805715065351e-05,-3.027075243251364e-06,-6.323989382548637e-05,-4.930979671295254e-05,-6.669028818839448e-05,-0.00010318743299972052,6.496566702376277e-05,-0.00013649536468149023,0.0001844968388193466,0.0002745127671469616,-1.9963886830037803e-05,0.00011038694556463752,3.3281257485910654e-05,-6.054199319778519e-05,-3.985562788746781e-06,4.955437885857759e-05,0.00011079087798470527,6.812052829318314e-05,0.00015223427253103355,-0.00013720467342314465,-0.0007999591143300067,0.0011164300294568136,0.0014465397587396511,-0.0019865814658287864,0.0011201692817372627,-0.00030820049353669915,0.0007174987113814542,-0.0002356518925130547,-8.973058652335039e-05,4.244591672390588e-05,-0.00016224552901971875,-0.00011490647385322978,-0.00010457049338587644,4.656189063301924e-06,-0.00020095174497381484,-4.740090469257732e-05,0.0005101592444800712,-7.519633915660864e-05,7.562781704822247e-05,9.634037185098435e-06,-0.00012613016001563476,0.00010607601666109794,4.9648818358973695e-05,-1.9034613339609374e-05,1.62343741658931e-05,6.780543558261055e-05,-9.710072425501808e-06,0.0003220790512242378,0.0003047660852490263,-0.003890846018774541,-0.00013578472250324464,0.0007218008553560584,-0.0008983443803623481,0.0005969715773601128,0.0001577802570402291,0.00023251641098196666,0.00012968029586504564,-0.00023665273643134598,3.719343224382367e-05,-6.098644771936317e-06,-3.2195073382089955e-05,-0.0003696487003418212,-4.048757095066486e-05,-0.0002480945027767377,0.0003857255173654109,-0.00012945021446477203,-3.645984071277801e-05,9.501777355460164e-05,4.516350497005446e-05,-4.3463763495350805e-05,0.0001038711772937996,-4.094973413883152e-05,-3.1867101577640056e-05,3.0456923071596476e-07,0.00015013824027499192,5.979126430969567e-05,0.0006876320227834146,0.002661528823806665,-0.00015066655610233848,-0.0034410038847732666,0.0014756708041100686,-0.0009644373497582938,0.0003318192160828761,-0.00010760741684164021,-0.00012200775368249091,7.69538764382174e-05,1.5197531732322016e-05,-9.914443092697185e-05,-8.160575300860187e-05,-1.621023881654901e-05,-1.7835936510078587e-05,-3.6848745297135554e-05,0.00010516212041055545,9.383719061591828e-05,6.968580398794555e-06,0.00018663804447515038,1.0720578349707188e-05,8.460592236459244e-05,-5.177302814490803e-06,9.466716637131917e-05,1.0079457178203792e-06,0.00012119138843769833,-3.842677245727245e-05,0.00013775488656490864,-0.000649370157808693,0.00017530964527681658,0.0012678056385425004,-0.00044285874814414816,-0.0006602617398805688,0.0007314026254838547,3.743794225592387e-05,9.541768370990855e-05,4.697876667006211e-05,-4.6814715202465884e-05,-7.784029824886313e-05,5.02258716578597e-06,-3.149255372265642e-05,0.0001046441523225878,-7.914157816352706e-05,4.9312722640748596e-05,-7.391163168098992e-05,0.000133531187743249,1.937037942885411e-06,0.00010569501108980556,-4.529228222052012e-06,3.3711450868971135e-05,-1.2079335337665531e-05,2.1142039326925433e-05,5.393923123385609e-05,9.896067379444422e-05,-7.248115925252013e-05,-0.0007201750003099187,0.0006370076959505283,0.0011620529050895556,0.0008049435003751881,0.001849582482579451,-0.0010934578627596891,-0.00041892692125281884,0.00038223647617687765,1.7775452735234107e-05,-7.809299447275771e-05,-4.437186779906316e-05,2.1156813466771847e-05,-5.333540910238202e-05,5.856316508466054e-05,-0.00010893464589069833,1.5071472088817872e-06,-8.294287039324957e-05,-1.8127540395644626e-05,0.00013233667007096772,-7.729941376668353e-05,0.00011232449070569528,-1.0704662210335447e-05,5.183500034750335e-05,-1.1859903089928708e-05,-5.583446711776574e-05,-1.8121389343216804e-05,-0.00014516823126515567,0.0004034535915161865,0.000984425006893136,-0.0020182491773498568,-0.000982631231201847,0.0006958050081420225,0.0029943544282099027,0.0021456929187368967,0.00010129708010140487,9.266178995882661e-05,-4.246306773747141e-05,9.796256154709707e-06,9.531614622722631e-05,-1.1964353356914634e-05,-4.892257716059695e-06,-5.003752816076443e-05,-9.38398056913245e-05,-6.464180731017427e-05,-1.0738055921735712e-05,-0.00012466428839803811,8.46850497011678e-05,2.1758539627173e-05,8.45509630235386e-05,1.8356823917639598e-05,-3.2927159994311506e-05,3.5285509169938334e-05,-3.949301200583365e-05,-3.0414900488709082e-05,-7.442658335309743e-06,0.00011494968669088085,-0.0009368602386447267,-0.0007387782479573307,0.0008686132431576787,6.109657830093151e-05,0.0018907721525430743,9.163848119353446e-05,0.00032498053877558566,-0.00011220977797570149,0.00016614478558498597,-0.00010417853668954688,-6.5859513116925394e-06,-6.709872670292855e-05,8.22831929084486e-05,-9.528886652453855e-05,0.00011000196930419093,4.2323685117695575e-07,-7.193159541771244e-05,3.1139114134617896e-05,-0.00010799716229406564,0.00012088562486241294,5.410829512516452e-05,0.0001570853378461412,1.474295293912159e-05,-5.638793272570025e-05,0.00012488155258017115,-9.045708964451962e-05,-4.859445897099912e-07,-0.0005134175151560103,0.00027970042986259075,0.00037999497260912674,-0.002185516572032531,-0.0012754884018704171,0.001588587556486068,0.0009669466725897302,-0.00028541905956642327,3.7552850879894045e-05,0.00017773646935470393,-1.781283128960906e-05,4.1939871543383855e-05,3.9498890290829564e-05,-5.8863168684118033e-05,-2.8997764875946658e-05,2.951093645156555e-05,5.857880580673047e-05,-3.878459563643605e-05,8.687817080195448e-05,-8.470744995994067e-05,6.94832033609899e-05,1.4426344372632516e-05,-7.571278693174407e-05,0.0003211889707289868,-7.760427148765375e-05,-1.859779493701072e-05,-0.0001715961138479133,0.0008094357577265489,-0.00016982459252310594,-0.0003085228877946003,0.001098767133068057,0.001116977279621817,0.0004860567986187947,0.0014907617815320268,0.00272652426924741,0.000940019719247516,0.00048756456997012254,-0.00037667847323185136,0.00037456264622124855,-0.00016797394587984502,0.00035007739307161764,-0.0001129153652066929,9.793748433648691e-05,-1.6449114095783146e-05,8.918645355254079e-05,-3.263950546799482e-05,-1.9118635857934274e-05,6.1012869976534434e-05,-3.8910027329183694e-05,0.0003665629023736419,-0.0002688830194284217,0.0002507541409786755,-9.473452484498601e-05,0.00041213613552372116,-0.00034351780136875065,0.0009486649827621929,0.0006961292474023731,0.0001960649798534858,-0.00300475155799447,-0.000558096782408285,0.0026855926778936445,0.0018793569971436164,0.0003404165845170559,-0.0014107705391256595,-0.0005072080182268873,-0.00018956680114545071,0.00015320843683469532,0.00015606385998071827,6.035907797851542e-05,0.00032491440747249925,-0.0002634330689500891,0.0006129949243018351,0.00010920408115684677,-9.805665512041539e-05,0.0004923451987827385,0.00011465438826954721,5.132016066750761e-05,0.00010638805932953327,0.00018632242199358162,0.00012345416774824092,0.0008343098772834248,0.0006375259570445824,-0.00035126327040921335,0.0014525788393593975,0.00013578027861746444,-0.004416186852237394,-0.004182729645595865,0.004640399000426246,-0.0035627494892228606,0.00045582611093965275,-0.002318226323271416,-0.0012627584014747381,-0.0013004651450781307,-0.0013713516202513154,-2.0649801546895885e-05,0.00031403160343398615,-0.0003370470768128131,-0.00040710981740860186,0.0010705002067017445,0.0007659398947240763,0.00046026572786372205,0.00029896052732583667,0.0012463639566684254,-0.0003009914528364077,-0.0001512357387642438,0.0005175695807979504,0.0022807776301338387,-0.0009953010624368652,-0.0020840849856479104,0.0011233877638339995,-0.0008362897222839172,-0.0012301808030927563,-2.3347966943476628e-05,0.00044379755881063243,0.002043210304606108,0.001200784310349895,0.00228246013163981,-0.0023759689424666525,-0.0021055958563539756,0.0001947135165889513,0.00042696261478275543,0.003181241563823378,-0.002035627791308392,-0.0005465265076409209,0.005484842616547428,0.00033873441247828096,-0.0004952317993548033,0.0016682309870535011,-0.0006280800783128315,0.0017058250841212597,0.0003225282764504206,-0.0006499719772387058,-0.002054632805466604,8.95464123385481e-05,-0.0016932299101203308,0.0005265274704147616,0.0013739230126013496,-0.002485547987674086,-0.0008187881434929822,-0.0017996618825270733,0.0011403049616107164,-0.00033015376234363236,-0.0024316429361349867,0.0018095954301363126,-0.0002803358968256342,0.017321986145958285
6.847203637715821e-05,-0.0032222874334765575,6.948742544174435e-05,0.0014304999156396006,-0.003250009022344326,-0.0024870789554548856,0.0024597552157858,-0.00043336114134519266,0.0020827116825249334,-0.0002750561198979311,-0.001400796281776931,-0.0003626834101785603,-0.0012050603768756218,0.0009926623762514103,-0.0009427635622966876,-0.0012784540202005618,0.0009287125881893427,-0.0004772645222226035,0.0008059915824811664,0.0008606443939214864,-0.00028297555668184426,-0.0019739051395040452,-0.0008825816189623747,-0.0014938877464577005,-0.002338936771806875,-0.00016668990903195152,0.0005346765061587169,-0.0033361683992745826,-0.000981412369846807,0.0033628363937919237,-4.85100497989166e-06,0.0009405181264414697,0.0020224952100672336,-0.000306590423654024,0.0003628301005470097,0.0002951867816008563,-0.0005278714689539027,0.001386506172507275,0.0002684818886739878,-0.0008470447286260813,-0.0011654850337414063,-0.0029110863838928414,0.0009016400683065917,-0.0008902149443204277,-0.0028642989363242624,0.00048774938960575304,0.0006151119157325573,0.0022580863437541426,0.0013219845317324619,-0.00036130665798542183,0.00032470176838927944,-0.0010560781568365804,-2.4743706458482673e-05,-0.0018120613854186313,0.00267230965338304,0.0015552744149061465,0.0010863505183544148,0.000771194418363555,-0.000760277795674294,-2.4470589666827913e-05,0.0011327005073479834,-0.0006277948989787951,-0.0009138544405642955,-0.002792412037821733,0.0015689464827651767,-0.0015297846059199316,0.0014315994863296558,0.00144730637409958,0.002294807024076889,-2.5564071339393216e-05,0.0013171687944426372,0.001231004705673118,-8.156084725732815e-05,0.0016133626311050017,-0.001697132455072109,0.00022981519042350462,0.0006195059977428946,0.0014383569254368123,0.0009493961964346098,0.0007503104125911389,-0.0015672374798592938,0.00010017359659209024,0.0011030134821165133,-0.003003197373171042,-0.0008742687643977509,-0.002690461372664772,-0.0014606567873945292,-0.003533072519739555,-0.0012014499797322747,0.0010726939932153914,-0.0019509618654900696,0.0019708603188703447,9.475084268631417e-05,-0.00029328865394421394,0.0004121519704427066,-0.000176963700093707,0.0002859208587434915,-0.0003789057915729102,9.966433069079697e-05,3.412924564077675e-05,6.350082116610449e-05,-2.7061623171359232e-05,-0.00013902322841897498,0.00037094183477355894,-0.0002408210209457768,0.00042862653176015467,-0.00041256640745989184,0.0007761046544095176,-0.0005532819739053792,0.0012138619640170434,-0.0011591728483696384,-0.0010161991692503453,0.0023765017464543736,-0.0014852524284414206,0.003588427244708793,-2.385128558962668e-06,0.0002579818632183206,0.0006677786542127404,-8.485929403101444e-05,0.00036548513342224247,-0.000244632875480634,0.00010470867984303106,-0.0001296052425814086,-5.467038665288261e-05,0.0001184370202704922,-2.252580925483829e-06,7.528847013140577e-05,-0.00010667805960991794,2.5712630787642823e-05,3.816620355018025e-06,2.1661239604189864e-05,-4.4508970182335905e-05,-1.1142418758913405e-05,5.333459810157905e-05,1.4514524884051347e-05,-9.595753010832597e-05,0.00011837028122273566,0.00024561070410154123,0.0010440584098170003,-0.0006957013648890287,-0.0002626764288737038,0.002130486473231767,0.0008790919328601349,8.759844723868482e-05,-0.0011457183886306142,0.0006552374179058448,-0.0003535988413234069,0.0002833013311933502,7.046202897602327e-05,7.318562399737973e-05,6.817340295089264e-05,2.4942360313785772e-05,3.921707222813778e-06,-2.6496762961868148e-05,3.8435712309289535e-05,-5.417337772493404e-05,3.868607754325699e-05,-4.385116961381575e-05,6.588668759016083e-05,-1.948466914324619e-05,7.43512903359396e-05,7.437401142655967e-05,0.00020669812208584833,9.537056582900258e-05,0.00032223808122171585,8.478999197498484e-05,-0.00032708557784644904,0.000550088012302323,0.00031558298983805355,-0.001278322732225945,-0.0012063684780256184,-0.0005171682017749424,0.0006308281426438793,-0.0007181262542129835,0.0003750921721992536,-8.474633948383267e-05,-0.00016362882901971645,7.35980873396054e-05,-8.923798733278566e-05,-5.347240598890107e-05,7.068414083125606e-05,-1.3345513242340665e-06,-3.2609003240615525e-07,-6.296235757053022e-05,-4.0207691052887226e-05,-6.0222698710527336e-05,6.954114785726051e-06,-4.619900875968072e-05,1.4523729817963668e-06,-8.330070439715575e-05,-6.764300015576086e-05,-8.996242319826361e-06,0.00012761327941255597,0.0001642207764794238,-0.0003215812446472621,-0.00040731290172743573,-0.0015960202527952327,-0.0005848778882224515,0.0005281305640789172,-0.00048474477837558844,-0.0008898827898966549,0.0006739447957686707,-0.0004445351354849334,0.00020164820246573387,-1.2315830270446734e-05,-9.291701034915088e-05,0.00012816877689609402,-4.801224124524953e-06,-4.877510826826678e-05,1.8340210974538557e-05,-3.3021483155225295e-05,-1.933084112955199e-05,1.8595261354984252e-05,2.640882781720401e-05,-4.27668345373694e-05,3.338625159601642e-05,5.447266194130718e-05,3.592980935392641e-05,3.0673883417688987e-05,-0.00011064475169533447,5.201132715491538e-05,0.00026346387978955395,0.0004582565645478709,-0.00022994641491953793,-0.0018310581887819866,0.0012438814188638417,-0.0006168138100145146,0.0007434566084613126,0.0004881769014340835,-0.00027954587059378887,2.127836635852122e-05,-0.0001168199597689967,0.00012218087842950746,-6.491299626973715e-05,-4.60019617290041e-05,-1.2542825212867592e-06,-6.42598438407721e-05,1.874297928763577e-05,3.486188555830352e-05,-2.6555827866084e-05,-8.778202637640519e-05,-1.2960409460981408e-05,7.09512861367138e-05,1.9433587880755485e-06,-1.881208783258148e-05,3.841254953916573e-06,2.051442286993277e-05,0.00010387769686487445,7.873426432182355e-06,-0.0003297674705649515,0.0006755251995373152,-0.002364253723129553,0.001793358436673581,-3.1175755334893196e-05,0.0005022542071019265,-0.0001629405211295079,-0.00019260692268565673,0.00013349692467113164,-9.72840219590201e-05,-7.52385456377529e-05,-1.8559905065253235e-05,2.6148166275804033e-05,5.0990617534103604e-05,-4.833592485603208e-06,9.868441810872118e-05,-5.524533834330367e-05,-1.791630655265282e-05,-3.7464976854022225e-05,1.674107054975768e-05,-3.699821963653628e-06,-1.3302423675393138e-05,-5.7132934882555154e-05,-3.9225043807870896e-05,1.0007661111548563e-05,1.6193471561060883e-05,-3.983401558635153e-05,3.424097356080364e-05,0.0011638327571747223,-0.0011720250846175007,-8.574350479904902e-05,0.0012861088424594158,-0.0018885485263416268,-0.000676672680636755,0.0008644834256703454,-0.0006407622111000259,-0.00013606729663346272,7.213388277620483e-05,-3.617568214636744e-05,-7.115104387811228e-05,-2.6260864199159455e-05,-6.162454910560358e-05,-4.724187468705017e-05,-1.5316608658479114e-05,-5.234512517121419e-05,-1.6948265977119806e-05,1.379851763801121e-06,-4.282695589301246e-05,-1.701681607636481e-05,-9.783245884459682e-06,4.372918532815663e-05,1.5445302476542293e-05,0.00011270102977383421,-1.790812781042768e-06,4.106488899300632e-06,4.475087723149109e-05,-0.00035358993408364254,0.0006173094619571773,-0.0017043379874146919,-0.0003708805191544387,0.0001554642113247781,0.0010424866103988031,-0.0021516481366846765,0.000618981740093217,8.310622646633906e-05,-1.5915906630774822e-05,-9.937824121843478e-06,7.579899599873246e-05,2.0183600505872465e-05,4.713014705253274e-05,-0.0001156774467938413,8.780383392415284e-05,-1.5249045333084674e-05,-0.00021263442743449552,-0.0001495915907614347,-7.38965802047865e-05,2.0648108748722548e-05,2.993974662961283e-05,5.759457364117211e-06,0.00010036288440443998,-0.00012680309134154976,-7.134079561779217e-05,-0.00015456144878764734,-7.186447875068367e-06,0.0006740056358801455,0.0004852344665254166,0.0012993105513816883,0.0006615767527664712,-0.0005743212764115491,0.0012166157802828634,0.0007333229536849173,-0.0002652070717694948,0.00023089494869952317,2.215210151063074e-06,-2.3604081955723444e-05,-4.901034373004827e-05,-3.031992912409104e-06,0.00014740095933823277,6.907673687322168e-05,2.152001193612106e-05,-3.5481601682390077e-05,5.408768955459005e-05,9.465302324092578e-05,0.0001445641452264305,-4.871831096171439e-05,-0.00013822196658507847,-1.3539481064448605e-06,-0.00010891606504934148,7.196557593358143e-05,4.887447555327034e-05,0.00012792515747317912,-3.0450407433034584e-05,-0.0010190026835540933,0.0018892696313599217,0.001841254581963922,0.0028764900434260846,-0.0006015335095156775,0.0003376549068367582,-0.0004190276897321453,-2.6902695321680964e-05,-0.00015848576773605614,8.639001043978575e-05,6.692327634538319e-05,-3.6343670241842374e-06,7.3144717345815374e-06,6.872874114239973e-05,-3.227614124806481e-05,4.103827539573418e-05,6.647489578657725e-05,5.318669392479717e-05,0.0002346455021244795,-2.719968355815311e-05,0.00014298596084461393,9.288288698261569e-05,-8.55684744264177e-05,6.303675029913774e-05,1.4594556206651201e-05,-3.150610644021097e-05,-5.543276109717856e-05,1.8494551273085316e-05,0.0004234947346532063,0.001245277998358739,-0.00041838139376708383,0.0019075816506260584,0.0021474006683361163,-0.0008785604296455279,0.00014583246579283685,0.00017973951755630114,3.679436480351654e-05,2.686594611301177e-07,1.88391625557012e-05,9.557753884875848e-05,-2.083431470115832e-05,3.9504573893092004e-05,5.581131535101376e-05,-4.05305827444781e-05,-8.243157445075519e-05,0.0002076821656352909,9.133045046212651e-05,0.0003976699486672765,0.00031578136743677307,-5.233189184285225e-05,9.032058330355613e-05,-4.29430815202473e-05,-0.00011475370300558646,8.442717094188932e-05,8.214054286870536e-05,0.00016590290587515863,-0.00017081442159841073,0.0004952962478664991,4.8680307074507045e-05,0.0007569170867305422,-8.188539924885302e-05,0.0007892624536952504,1.5038029591143975e-05,9.610568780151624e-06,5.110017848071295e-05,1.2444396408358739e-05,-2.096496377193991e-05,9.611499711907612e-05,0.0001533382984965012,1.749615203093524e-05,6.671571278737964e-05,-5.0557659053714066e-05,5.129794737089577e-05,0.0002859480559531252,0.0002689335667541218,0.00039974256706906686,0.00010170491287242109,-2.337936505934085e-05,-5.934238570307754e-05,-6.402153575598216e-05,2.891573115351969e-05,-0.00010362342608812199,-2.5086495221616004e-05,-0.00021471098921216,0.0003028512913091693,-0.0001663913990885245,-0.0005031697074768249,-6.600707521596527e-05,0.0012374126862207957,-0.0021398969541471663,0.00015213597652428967,-5.6800469452725905e-05,-2.871724845482284e-05,-1.922912424698678e-05,2.73930254346055e-05,-7.559696882205452e-06,-9.13423973435707e-05,8.353041453411023e-05,-6.269341289218827e-05,-5.7894902656820124e-05,0.00019260347860282356,0.00013232361556907157,0.0003772893915917619,0.00013744824902674202,0.00012796414876074455,5.823468115987579e-05,-3.246964287365126e-05,4.773973091692918e-05,-7.038056176536002e-05,0.00010872758476238552,1.3673171610491947e-05,0.00014969165776795162,-0.00012952848344074258,0.0017301192264593604,-0.001527895166806098,-0.0008442586835724075,0.0003570899918821785,0.0011434306009535516,0.0003284865698956127,0.0001553723465427424,5.8219756920155005e-06,8.387307754380811e-05,1.8874206914263822e-05,5.073711254734853e-05,5.3422672043255265e-05,-9.954204251003823e-05,6.627491216863735e-05,1.2333910403242165e-05,0.00032028319826169285,0.00029681698113089364,0.00010249071618962519,0.00010671538811577071,-7.250692318433796e-06,0.00014983486234636592,-4.011667844913778e-05,1.6530118950710236e-05,1.4130134453189253e-05,-0.00018988711187617447,4.182545421484792e-05,-0.00015931586073358352,0.00047998138813326943,-0.00027209674844705725,-0.0006328655172545272,-0.0003864210461493045,-0.000854959960378085,-0.00021055867222383173,4.025393143690728e-05,-4.350445069924874e-05,5.2593806022168364e-05,5.833153685032549e-05,-2.3659802205782364e-05,-0.00010485893359839758,7.335212629600366e-07,-7.153290868831125e-05,-4.397217434202495e-05,0.00015421240029417707,0.0001989300860226577,1.3023816417372103e-06,-6.474213270897707e-05,0.00012016870981359888,-5.395631368885524e-05,0.0001587473201921808,0.0001235134337367388,7.904065206214435e-05,5.601960470085366e-05,4.806652864403722e-05,5.354052532238361e-05,8.024823338110589e-05,-4.362981259440832e-05,-0.001593013283173017,-0.0013979376343278838,9.837570066010409e-05,-0.0017735139297004945,0.0004997119302939043,0.0008905877233606214,-5.3953388900729576e-05,-3.845416822561339e-05,-3.11695233664493e-05,-2.197145307854297e-05,-4.0689970664955534e-05,-0.00011430843486894861,-0.0001355005117971795,-1.372688347407204e-05,-0.00031351198794513264,0.00010360383571943362,5.86915667525785e-05,4.1459577695747776e-05,7.867449926500167e-05,1.9943399242421805e-05,4.8461634709149465e-06,0.0001163543129641129,5.383980338868541e-05,8.629266375550582e-05,-0.00010378696259583532,-0.00011832335108238716,-0.00010459153116767952,5.921868048929316e-05,0.0005552945006936649,0.0011537231941391932,-0.0006040257718334593,0.002720414041644449,-0.0017622255124856157,-0.0005700963810252244,9.11639030407533e-05,1.286653467073341e-05,-6.188664229479866e-05,-4.243268012932419e-05,-0.0001341263638302741,-1.9044856178477253e-05,-0.00012920630829464392,-6.721590567193743e-05,-0.00015588327611106532,-2.0029783386790734e-05,4.14473939494564e-06,-2.0192383096015454e-05,4.247012551928178e-05,0.00011923505605975458,-7.859940059727968e-05,4.1633398560586565e-05,6.736328644839709e-05,0.00012540976158300753,0.0002724268286550917,7.005423448537247e-05,0.00018566552594742602,-0.0011832216243151741,0.0013071852504110207,0.0003830389444825777,-0.001014241838684135,-0.00040038755040991414,-0.002354576140815842,-0.0004187661197463874,-4.9779322307864655e-05,-0.00013796071999759249,-3.675696792225123e-05,-0.00016684562882584002,5.905684653403041e-07,-2.7900691156745525e-05,-0.00015041534707750052,0.00010555352093047886,-6.425954609409756e-05,-6.13012379967557e-05,8.973603737030822e-05,2.297742010427123e-07,-5.937193826487195e-05,0.00016968133461766656,3.4422507179149905e-05,2.732594338858592e-05,5.6052321249996234e-05,-0.00015849416966752126,0.00015198319562608614,-0.00019177254130339598,-0.00040148192240050187,0.0006049294601550015,-0.0024642636277458566,-0.0010243466487258601,7.958973026850336e-05,0.0006779299597223232,-0.0011769391002414906,-7.30882827871017e-05,5.726026138678543e-05,5.254988181902854e-05,-0.00015876864593549877,6.871355500670875e-06,-1.0289840352193345e-05,-7.806781468865272e-05,1.6674836053198402e-05,-9.252229149811497e-05,-1.3379522995907861e-05,-5.23221018250003e-05,-7.980900053898912e-06,5.0360239825294334e-05,-3.011514837860524e-06,-3.940462729509417e-05,4.6151056234964086e-05,9.280510517736731e-05,-0.00013943405530642515,0.00037885516508370104,-0.00032130714998846246,0.0004924638532930103,0.0009993131709530312,0.0007228268318278525,0.0001813762274882353,-5.8517140439418025e-05,-0.001474640702634332,-0.0018300449317609144,0.0006086706773767436,-0.0009782955314836528,0.00010163631870164364,-0.00012125478955236219,-6.142137901884656e-05,-5.645096715460943e-05,3.076279397392148e-05,-2.8464173456874478e-05,-2.6497689141761344e-05,-1.711281573762123e-05,-5.072707628982643e-05,-1.4420622548241488e-05,-8.036981331494258e-05,3.230619358185211e-05,6.415655114847332e-05,-3.8096746382399946e-05,6.654283582676127e-05,8.817899134181892e-05,-3.457484383328005e-05,0.0002217520164431476,-0.00019809981610212704,-0.0001636798596992492,0.00040659148436314463,-0.0009939107021741944,0.00024255165268138867,0.00012684619674813852,-0.0012872331980095936,-0.0014710170985514914,-0.001287871103783221,-0.0008148745967677916,-0.0009867766534025976,-2.315618601114039e-05,0.0003456733816186563,-2.2547819472749572e-05,1.823176610957558e-05,1.385560748675893e-05,-4.817751937571252e-05,9.495009999844258e-05,-1.9039644486008173e-05,-5.435988364323012e-05,9.672651091488689e-05,-1.3430890048529709e-06,8.868354266640573e-05,6.684104405844243e-05,7.439806966033462e-05,0.00010819466318311155,6.485978144720253e-05,0.00023409324015863896,-9.510579326674727e-05,0.0005046020502301393,0.0005928577424423563,0.0008996332858403067,-0.003454932677110119,-0.0005519514633943456,0.00225685568803273,-2.5491838700944514e-05,-0.0015460450207004095,0.0009419451070225016,0.0008141049819350432,0.0003837904010871654,-0.000262785231936926,0.00018376326685048093,0.00012371760937874773,0.0002336886945425408,0.00015222804275642418,0.00013790760541185568,0.00012706346793114713,0.00015121345519321806,8.127420507828519e-05,0.00015997313408821004,8.688745593385741e-05,7.028713625794117e-05,-6.548123681705473e-05,5.173214215987293e-05,0.00014214905621943302,-0.00018472599003161588,-0.0005307255217206278,0.000939977733558979,-0.0001514223270018336,-0.0004170173043179515,-0.003097873236437329,0.000571338401965743,0.003214734435823763,-0.0012049467790498508,0.0021655665983605216,0.0006049310530096275,-0.000606926314720313,0.0013738756356349371,-0.00021372699022728647,0.0012381677870928753,0.0001036125763775042,0.00015281701618116011,0.00028358373918901947,0.0004549382992340735,0.00032968968775560527,0.001134042259040631,-0.0004761916007552311,0.0009202550266148336,0.002265477532935236,-0.0014640041114783973,0.0006102475484993271,0.0010340758189122008,0.00211783628686002,-0.002807036867905871,0.0010509944729733822,-0.0009479870741782685,-0.002181905214455465,-0.0020205000440161186,-1.440019979648266e-07,0.0009865318386948901,0.0010089278459662065,-0.0027245650354497386,-0.003110179475493302,0.002599835563225291,-0.0013400943311387935,0.0012363279297190818,0.0013560805570107942,0.0002871438089203926,-0.00026114923402448253,0.0036337172992324043,-8.568076271767144e-06,-0.0014914641053672406,0.002059339610774223,-0.0019370255157482585,-0.0020083946019668203,-0.0014759739375041978,-0.0002523800151329053,-0.0001984463703593592,0.002945001630494687,-9.672064416961154e-05,0.0009805884392680118,-0.0006186677475570335,0.004204836814632844,0.001221367119317321,0.0005154717864381403,-0.004767414478035956,-0.0006965053244799013,0.002318809611728617,0.02129066995243653
0.0011739770951691986,0.0018187191573052763,-0.0005565544886109441,3.7705165184621914e-05,0.0008715076534593635,-0.0055002908953174084,-0.0009042336643870913,0.0032153694661389426,-0.0016047169079185103,0.002292254359782763,-0.0013501450992099845,-0.00234974703578355,-0.003322125823693553,-0.001818365700438529,0.00025432661392274514,-0.0004144181210624376,-0.0007087157229511316,0.0037489621896420466,-0.002031072176324547,-0.0016381786542975507,-0.0007351753824099139,-0.0032281305478661093,-0.0031692029848854886,0.0014152658447839361,-0.006273199083120656,3.3864447852999247e-06,-0.0015439920118953399,0.0005529638658175878,-0.0029175688033421868,0.0029735635791211384,-0.000997436058565157,0.00021263459981860078,-0.00260055064182943,0.0006014139098558802,-0.0009099019920889573,-0.002413987646772614,0.0016090038519767508,0.00021147799851822108,-0.0028310491959387674,0.0003217291424079463,-0.0034054998497876354,0.0029277021896031707,0.00013937098917350677,0.00013761174920479124,-0.001601992767447262,-0.002725146640558687,0.0006174849401552329,0.0015484296307387707,-0.00020123678836753145,-0.0039662374428736935,-0.003626840532269582,-0.002778225293970843,0.0005170828272419159,-0.0018455766052208195,-0.0027131773293811723,-0.0018633778057411017,-0.0017880152602641978,0.0008907610783698717,0.0005504080568639325,-0.0017026540458310105,-0.00034258739388282056,-0.003397370800865107,0.0028331606332634984,-0.00025117203937381066,-0.0019483487821590484,-0.0003389248586937593,0.0014673268561973818,0.001413481812068712,0.001911877041745176,-0.0013473785130386808,0.0016833926502710095,0.0009760833447193182,-0.0003556991711067721,0.0017820710925350869,-0.000632076554854373,0.000984490882360049,0.0008325092233418402,0.0007986231013226569,-0.0025058108315779218,-0.002189442432308418,0.000469792329113948,-0.0014083568862502255,-0.0035697387684574255,0.0011430507114199434,-0.0031526337420742234,-0.0023109905979862844,-9.799994899681308e-06,-4.299478131109327e-05,0.0034806929538949982,0.0014239681159813194,-0.0011048987365917876,-0.001440933459172379,-0.0010795157315256348,0.0003116262613869457,0.0010341034396641538,-0.0008171515509300085,0.00037589542226866557,-7.719787194367458e-05,0.00017164017038763003,0.00024940139348004,-4.9183526634263494e-05,-0.0001238029066253114,0.0006596052628910437,-0.00024104945186666227,0.00042684218450273013,0.0003029540744862273,-0.00022326271133484704,-1.1326529376541605e-05,0.0009607035387431198,-0.00024432170034435763,0.001537049891849912,-0.0010958975487119216,0.0023160938527830854,-0.00170912213086509,-0.00209391009865878,0.0016066745235244762,-0.0007687175385559727,-0.0014616251821064803,0.00016638643723587872,0.00034432345984953053,-0.00015335124630402007,1.666777382033479e-05,0.00015640191477419435,5.777892681204863e-05,0.0001402397598934211,-6.6519007158726e-05,0.0001015767847683622,-4.7441393455856067e-05,9.067643265567304e-05,4.564955739604255e-05,9.558309120513697e-05,-5.633129510012897e-05,-0.00013355862783118871,0.0002080467581190744,-0.00013593034488613986,0.00031157415377249323,0.0004853107794205915,-0.0007409817183850267,0.001444405634104997,-0.0017927162215958248,0.0034833246404075285,0.0007898991460363464,-0.0027431998390173087,-0.000264512923338088,-0.0002803442650016058,-0.0014548216389242991,-1.711957860208238e-05,-9.455390715020634e-05,6.769035981551551e-05,0.0001589172750156003,-0.00022354732357651383,7.162466055787853e-05,0.00011676907124195599,-9.977198410617526e-05,9.558799232429332e-05,-9.809493342536127e-05,2.4082153790943445e-05,-5.079879811779875e-05,2.075927099300101e-05,-2.962142872664844e-05,0.00010931307357798029,0.00010154146855238452,-4.805351911703337e-05,0.0001782527848508894,-0.00010570751422448246,0.0004937336144005162,0.0002120903983097184,0.0016288386027859814,0.00023133891316920452,0.0032775161914544576,0.0005658309810490161,0.003751869946982872,0.00044336678782049,0.0004538744034957923,0.00027021679473982624,3.385423435621655e-05,-8.618617534467306e-06,0.0002928086672106412,-3.847851345908926e-05,1.1246803611770356e-05,0.00011735161437958011,6.188430617362628e-05,7.640467805155801e-05,6.963246093897452e-05,-2.5557079904904578e-05,-9.540913392322437e-07,-7.699013811333921e-06,-0.00010162970411447744,8.707197393579766e-05,-3.205563195747552e-05,2.9068305621179555e-05,8.995582926902418e-05,0.00030136373815587824,0.00014525714072718618,0.00048285204198266797,0.0006234653706882719,-0.0019917822976447536,-0.0005733984783674595,-0.0033344403736846745,-0.0006853765809604617,-7.709841417668714e-05,-0.00048181304824072846,-0.00011556593108717761,0.00010603481694741387,0.00015936061247672807,-0.00013440203696908973,0.0002327827599754445,-1.297729652117302e-05,1.847010894683032e-05,-5.793664117986763e-06,3.1280600770813155e-05,-9.107410104935987e-05,4.599223938341751e-05,-2.2465363841844832e-05,-6.189061624854025e-05,1.374837683149055e-05,-4.3032465445212026e-05,-2.8905021588757768e-05,-1.7689112609218377e-05,-1.879328117244082e-05,0.00030585146571562513,0.00012542282863517093,2.4494320403667044e-05,-2.908901714813311e-05,0.0013711405056511198,0.004588832772088325,-0.0015264074787150195,0.00020532908630449542,0.0002282358706208465,0.0009507670459815952,-9.245284052356029e-05,-0.00023559929925592166,2.8177270712656174e-05,-4.52185073846912e-05,-6.588411528926294e-05,3.203582958524742e-05,-9.801372402609004e-06,-3.5647562149666856e-06,3.7617326711585075e-05,-3.542990782361144e-06,-2.9653570395696965e-05,-7.753575288226358e-05,-1.081614844515924e-05,6.997763875035701e-05,-8.915792631336659e-05,7.023736569168604e-05,1.1573057182977936e-06,-1.3238196596012525e-05,0.0004499416638787668,0.00027198603729870416,0.0002086541364777622,0.0005573889820368327,3.252948865922756e-05,-0.003852240843144325,-0.002830994011599433,4.730578958653253e-06,-0.0003607106356371473,-0.0005604386177538272,2.3335502904303466e-05,5.919274833230889e-05,0.00010269663104827895,9.787258371179303e-05,-3.070028380501924e-05,6.571092892088473e-05,6.928901883450703e-05,-0.00010933032245492857,1.9995714754163924e-05,3.134569025233652e-05,-4.880970078365021e-05,-4.354342371545861e-05,0.00017403586455043418,-0.00018975183219280614,-6.483262736048032e-06,8.590895730888233e-05,-7.20214600108994e-05,5.892572868946254e-06,0.00013673094178817333,0.00015565436034692924,0.00037393965288892717,0.002423004297544492,0.0010801238830318166,-0.0031619222423133753,-0.0019271889089576555,-0.0004829666351765516,0.00014117094668805036,0.0002941712328509011,-0.00011131572929161913,2.728299841911301e-05,-3.286820687302232e-05,0.00011663026975112199,8.550202794097884e-05,0.0001645785278828818,0.00012582919117898328,-5.835486882889082e-06,-2.436766489256545e-05,8.16002353850858e-05,0.00010301490059462601,-0.0002946596345461683,-0.00014729831551633585,5.649795325123573e-05,-9.249867358174235e-07,2.4270089242514267e-05,-3.6228131018046367e-06,2.8318471821144053e-06,-5.238456295498118e-05,0.0009023812708469567,0.0008484898743074398,-0.0009877735757197262,-0.0009990411839584656,-0.003060301173034574,-0.002129383301660029,-0.0017178305526563548,0.0009156270525307545,-1.5492311714535023e-06,0.00016675971053448785,-0.00010610296667641107,3.7743267066479846e-05,3.491456654588013e-05,-9.72506930546277e-07,4.821995481795599e-05,7.27280562858243e-05,0.00022409212064942313,4.427602410153955e-05,0.0001914879865533986,0.00016914475677100044,0.00012742712364791076,-2.939380815178763e-05,-0.0002351389329761965,1.1255885143852257e-05,-0.00016656209913101837,-0.00015670037824286678,-0.000189143919547388,8.765624068427999e-05,0.0012164638835202597,-0.0003702506301230257,0.0016148176359602195,-9.200117558533227e-06,0.00039721350014854107,0.0011796711888748673,0.0008825292435243187,-0.000687230357201557,0.00023189645711559894,-5.255590047097353e-05,0.0001444525307699538,3.286465210731136e-05,2.391342049429257e-05,0.0001232760218820711,0.00018910904423508762,8.281835285848041e-05,-1.5811382611786995e-05,0.00012274070595720554,0.00022549647695552233,0.0002524208756854822,0.00013008967657325045,-6.181621948675442e-05,3.0026763132984594e-05,-0.00030009772529344687,-0.000153632627559336,-0.0002594659470727184,-9.141807859134026e-05,-0.0005651040898355651,-0.0019161759562867121,0.002784657819323289,0.00297644359897839,-0.0001422394820880038,0.0026951250682403505,-0.0002802191302511553,-0.0022832041413294434,0.00029208708452121285,0.00012032390354655906,8.139085795344676e-05,0.000108331884081222,-2.5588305080523344e-05,9.426234681084687e-05,6.10755564998608e-05,7.173439842318372e-05,0.00022482699395986322,0.00011788861884677593,0.00015454016486125127,0.00022889247292963433,0.0003240667509675846,-7.95798274048215e-06,-1.8642131279285323e-05,-0.0001393108157718998,6.171432196068125e-05,-0.00014543575953548547,-0.00019298965070068189,-0.0002999310175518105,-9.330844194677633e-05,0.0012434209289482294,0.002356568022877384,-0.00443778842859302,0.0031338815376672977,0.002456537140723955,0.0003836451651479389,0.0024812393547950368,-3.680942256332857e-05,-9.64581792263653e-05,-7.6850563655112e-05,-0.0001026178959619567,9.19909359015092e-06,-0.00010588833530030331,0.00015788415271946604,-9.229144065770259e-05,0.00011224684243633931,-3.057499114912654e-05,0.00017425229605572135,0.00031480974152414687,0.00024303233072504177,-0.0001551149046854529,-7.27642518663918e-05,-0.00011476044986151283,-9.764373929506756e-05,-0.00013824352361609116,5.74681269832145e-05,-8.564211444475785e-05,0.00022866113400871538,-0.0010050103441615436,-0.0003840600421242818,-0.0034605386185184994,0.0003828454692956784,-0.0003400381137149966,-0.000763765835862143,0.0005774333328284961,-3.73863329603142e-05,4.375768271349355e-06,9.796274627427333e-05,-4.772491131298522e-05,4.973241433729042e-06,5.665759266001817e-05,-5.2894527521949244e-05,0.00020902272764340007,-8.819805091263636e-05,0.0002704557282177805,0.0005411421350531194,4.6836243968655794e-05,1.596665190874494e-05,3.302765045610362e-06,9.319884645820828e-06,-2.459751444116101e-05,-6.205555348421082e-05,0.0001608885103889044,-8.03683583108488e-05,1.8071646794338286e-05,-0.00012606608905641262,-0.0004827913436212458,-0.0022724823772528185,-0.0005347871167542262,-0.001812722062722899,0.004251291992862366,0.0004961932281393952,0.0015953304288860576,-0.0002835514149091452,-0.0002642000792214246,-0.00022005059260933948,-0.0001206599368820194,-0.0002143240365451637,-0.00014060112904892494,-6.067655658401408e-05,-0.000164296646140134,-1.0905951912752038e-05,0.0005288148267272898,-6.630625719435124e-05,9.979169425071432e-05,-8.197936118868945e-05,-0.00017561737053205066,-3.199408510770954e-07,9.684175319844834e-06,5.05312259801681e-05,-8.38538542371741e-05,0.00018531082844643922,0.0001125061160704979,2.623715095980382e-05,0.0016664087436273692,0.00040236997053858664,0.0017493574607540807,-0.0015880798013449826,0.0033024064887904603,0.0018528058128805466,-0.0013697118880875159,9.433275820139048e-05,0.00020385608278608754,3.245657013957806e-07,-0.00014824936068181735,6.0323173947609936e-05,-8.481731917557144e-05,-0.0003135887010636239,4.449084954030822e-05,3.8167053350676716e-05,0.0004360733566469363,-2.028947678388987e-05,1.781298835975241e-05,4.912360064941029e-05,7.908568586172116e-05,-4.74782654169871e-05,1.537323895929761e-05,-0.00012148674719996214,-6.85251157321598e-06,-0.00024519304002895703,8.310180785468108e-05,0.0003111331706250678,-0.0006796730413053502,0.0011228810358923508,-7.628161347240231e-05,0.0018565119571261335,0.0027416576652224134,0.001166696695354491,0.0014914721955396996,5.801406730981213e-05,-2.3327826821162388e-05,0.0002539509419263982,0.00011447305566205041,-0.00014486038884007658,-7.210870702592347e-05,-6.626743024189252e-05,-0.0001859695502864616,0.00022516966892527704,0.00012206544379026255,9.849500890276273e-05,1.9371847782048354e-05,1.9110508907254145e-05,4.8536375898335093e-05,-1.8225034280512642e-06,-7.68302256999049e-05,0.00023617365194805381,5.379783567623824e-05,0.0001996241084716733,-0.00012093128939856795,-7.415121977361397e-05,-0.0004640676940955435,0.00012008974900334923,-0.0008574354974653364,0.0006111399203935566,0.001632090391244928,0.0008302956783579618,-0.0005711933062651532,0.00015472411503055818,-1.279160470944729e-05,-6.551928903721083e-05,-5.271348005517727e-05,-5.2999745342313664e-06,-4.775226502483419e-05,7.459562078350815e-05,-0.00013972631556020097,3.154071806121296e-05,0.00013289311920678532,0.00017255442498307141,6.0640154654244965e-05,0.0001386220519901532,-1.960988116493645e-06,0.00013949712231616992,-4.850302748359708e-05,-5.302455268521057e-05,-5.6007746240586964e-05,4.0463435634326486e-05,-0.00011151336928573105,0.00034995389430681444,-0.0001685646420613099,-0.00043183549155412226,0.003650393204874189,0.0002738556200664946,-0.0017160988376443559,0.0026818771670895185,5.9941532774124284e-05,-1.7381269616519555e-05,-4.9214490767623704e-05,8.445770864276905e-05,-6.338505823093657e-05,4.1066435206483023e-05,9.757839266000268e-05,-0.00010287838893400375,0.00012695185591542896,-0.00020601450281365619,0.00012925102177826706,3.763070787557096e-05,-2.380258697295967e-06,-5.66589358639083e-06,-6.222295189754756e-07,-4.854049490718437e-05,6.41542632630731e-05,1.2407077105997671e-05,-0.0001849142148412277,8.318823535876513e-05,0.000290430744911023,-0.0004410299512475034,0.002757325798667859,0.000199596899742277,0.00021827984462835515,-0.001195577828733252,0.0029897651491623545,-0.002972245718586841,0.0006747673680365107,0.0001417045993703566,1.6175110385905495e-07,3.37924474376472e-05,1.0748145610307326e-05,6.290858341936531e-05,-4.763297477643896e-05,4.5677983860004795e-05,-0.000116046818444418,-7.4339138128390325e-06,3.642661552820392e-05,-0.00014661616325467586,0.0001840636353168043,-5.638637639180169e-05,0.00015554788693131205,-6.416806812596307e-05,5.045315912485804e-05,-1.3754558900146152e-06,5.7436416736318316e-05,-0.00015084197425263048,5.915659588818893e-05,-0.00023643963528072187,0.0007853508473012749,-0.0009731219092776848,-0.0010088636157084899,-0.004036097579596401,-0.0002492307117059264,0.0014152916884231578,-0.0002636359906030422,-0.00015057399962308676,3.2514187244286896e-05,-7.68436798286691e-05,1.1846088251315362e-05,-0.00011852164752459288,-2.4876473918227643e-05,1.324134623679335e-05,1.8457213833290853e-05,-2.5068747312118056e-05,3.134467878687652e-05,7.827228721704604e-05,4.755648220014508e-07,0.0001409599752226487,-2.3934213938162086e-05,0.0002589227160864245,-2.6399750609126804e-06,4.5999644758969865e-05,-6.697503594675983e-05,-4.161736440230074e-05,0.00014741682451238636,-0.0010693715793763277,-0.0014103011157129974,-0.0014067916547620546,1.947755411196156e-05,-2.9425680413835975e-05,-1.535635600630192e-05,0.0007045725319772683,0.000977274645439341,0.0005597349775108666,9.855950068056278e-05,-0.00010675927589521433,2.784519823779974e-05,1.0028338048190602e-05,5.628899222143158e-05,-0.00010782781512808787,0.00015811155996819232,-3.9094348932983136e-05,8.65445646170554e-05,2.031780786677928e-05,-3.105843697856492e-05,0.00011312461335905716,-3.0255136782939007e-05,-0.00013184427906879487,0.0002807908079007701,0.0003586024689598462,1.2419549850720135e-05,-0.0007205751581127184,0.0005552284571141777,0.0005357208147488482,0.001503071619759544,-0.0009889823013336518,0.0007441360647804374,0.0004900738200314045,0.0020288262722847825,0.001224816727907134,0.0008708199938518291,-0.001416719141665291,0.0007944996911115765,-0.0002474953091022077,0.00026903387955280137,-0.000147303281939435,8.28720836575439e-05,-0.00011502857767722516,0.00017090867708169366,-0.00011814785163356822,9.409829387999752e-05,-8.543181503728459e-05,0.00023897658766798557,-0.00013095387824239857,0.00033847793156755596,-0.0005562063978225493,0.00035916242803226556,-0.0006349701613489536,0.000949360746064512,0.0006680623264938533,-0.0007496395775383226,-0.0003709082667362057,-0.0011279895002273,0.0002809846607607566,-0.001076872403648732,0.0012857305381472617,-0.00033903897253776544,-0.0016854386401810306,3.2902608955720503e-06,0.0013234514649308124,-0.00221791395795002,-7.137426336028228e-05,0.0004216896147749387,-0.0002068665445427026,1.4372326478211128e-05,0.0005141365343379542,-0.0005991909463828604,0.00040144657619606977,0.00013186381179612627,0.00013292549133425702,0.0003794903260886384,-0.0004963029937649077,0.0011474417017815902,6.559809728030885e-05,0.00023528296803522475,0.0011640891943119902,-0.0008310939608074316,0.0004826765254833526,0.002079604072942387,0.0005750494990741373,0.0003360561841888876,-0.0020245752418767277,-0.002494399746156145,-8.142318169629403e-05,-0.0036469956142932414,-0.002975854436034278,0.002312800602786616,0.0030392009575987006,0.0021619201469867955,-0.0036465490190417463,0.001384162326512492,-0.001228093976717963,0.002152232748246885,-0.0018488770956944234,0.0027195998558968704,-0.00161069988936198,0.0012381576020121382,-0.00032224347785335394,-0.0005292215291062621,0.0010145335068332956,0.00041302361645274843,0.0015547127145538187,-0.0010969055522503102,-0.0008998594413689442,0.0006107096306527601,0.004025175673692337,-0.0003601903086409286,0.0003449200450544865,0.001019012525622781,0.0018791766146284278,0.001072711717595723,-0.0029401080451332967,-0.0013071832486926255,-0.0024717850680965048,-0.0017452849699801237,1.867603968654097e-05,-0.0020784831236411727,0.0031817040781177697,0.00469834369016317,0.0014920911338030807,-0.002748188552307674,0.00011423494830020697,-0.0015738302675520899,0.003278691970606368,-0.004110088572219631,-0.0011535986038957793,0.0005376716249349822,0.0022111535307001717,0.0005037505131980369,0.002755953668877653,0.00246240242919267,0.0008851579876824646,-0.004499983241731453,0.0007207410834987327,-1.4565640368752186e-05,-0.0015666788437247309,-0.00204095323775114,-0.00020014615299437932,0.003164912304986625,0.03149004873309674
